{"learner":{"attributes":{"scikit_learn":"{\"_estimator_type\": \"classifier\"}"},"feature_names":[],"feature_types":[],"gradient_booster":{"model":{"cats":{"enc":[],"feature_segments":[],"sorted_idx":[]},"gbtree_model_param":{"num_parallel_tree":"1","num_trees":"250"},"iteration_indptr":[0,5,10,15,20,25,30,35,40,45,50,55,60,65,70,75,80,85,90,95,100,105,110,115,120,125,130,135,140,145,150,155,160,165,170,175,180,185,190,195,200,205,210,215,220,225,230,235,240,245,250],"tree_info":[0,1,2,3,4,0,1,2,3,4,0,1,2,3,4,0,1,2,3,4,0,1,2,3,4,0,1,2,3,4,0,1,2,3,4,0,1,2,3,4,0,1,2,3,4,0,1,2,3,4,0,1,2,3,4,0,1,2,3,4,0,1,2,3,4,0,1,2,3,4,0,1,2,3,4,0,1,2,3,4,0,1,2,3,4,0,1,2,3,4,0,1,2,3,4,0,1,2,3,4,0,1,2,3,4,0,1,2,3,4,0,1,2,3,4,0,1,2,3,4,0,1,2,3,4,0,1,2,3,4,0,1,2,3,4,0,1,2,3,4,0,1,2,3,4,0,1,2,3,4,0,1,2,3,4,0,1,2,3,4,0,1,2,3,4,0,1,2,3,4,0,1,2,3,4,0,1,2,3,4,0,1,2,3,4,0,1,2,3,4,0,1,2,3,4,0,1,2,3,4,0,1,2,3,4,0,1,2,3,4,0,1,2,3,4,0,1,2,3,4,0,1,2,3,4,0,1,2,3,4,0,1,2,3,4,0,1,2,3,4,0,1,2,3,4,0,1,2,3,4],"trees":[{"base_weights":[-3.892825E-2,-5.578631E-1,7.780329E-1,-2.679093E-1,-7.306012E-1,5.2343196E-1,1.0386226E0,4.104405E-2,-4.10871E-1,-7.651283E-2,-4.079868E-2,6.6555715E-1,-1.5818479E-2,1.2170588E-1,7.8547823E-1,-5.311774E-2,4.577863E-3,8.02802E-2,1.8883208E-2,9.605686E-2,4.74939E-2],"categories":[],"categories_nodes":[],"categories_segments":[],"categories_sizes":[],"default_left":[0,0,0,0,0,0,0,0,0,0,0,0,0,0,0,0,0,0,0,0,0],"id":0,"left_children":[1,3,5,7,9,11,13,-1,15,-1,-1,17,-1,-1,19,-1,-1,-1,-1,-1,-1],"loss_changes":[6.141828E1,4.239481E0,3.1913834E0,3.5277994E0,2.9951668E-1,3.0591106E0,2.548008E-1,0E0,1.6234913E0,0E0,0E0,1.5117416E0,0E0,0E0,2.9969501E-1,0E0,0E0,0E0,0E0,0E0,0E0],"parents":[2147483647,0,0,1,1,2,2,3,3,4,4,5,5,6,6,8,8,11,11,14,14],"right_children":[2,4,6,8,10,12,14,-1,16,-1,-1,18,-1,-1,20,-1,-1,-1,-1,-1,-1],"split_conditions":[3.5065937E1,2.2960155E-7,5.102808E1,-1.3415452E-9,2.7786335E1,1.2111298E-5,5.776194E1,4.104405E-2,5.353437E1,-7.651283E-2,-4.079868E-2,4.7065495E1,-1.5818479E-2,1.2170588E-1,5.1206666E-9,-5.311774E-2,4.577863E-3,8.02802E-2,1.8883208E-2,9.605686E-2,4.74939E-2],"split_indices":[10,1,10,4,10,1,10,0,7,0,0,10,0,0,5,0,0,0,0,0,0],"split_type":[0,0,0,0,0,0,0,0,0,0,0,0,0,0,0,0,0,0,0,0,0],"sum_hessian":[1.4284785E2,8.755191E1,5.5295944E1,3.3638367E1,5.3913548E1,2.949117E1,2.5804775E1,5.5295944E0,2.8108772E1,4.7462353E1,6.451194E0,2.4422377E1,5.068795E0,1.2902388E1,1.2902388E1,2.2118378E1,5.990394E0,1.8431982E1,5.990394E0,6.911993E0,5.990394E0],"tree_param":{"num_deleted":"0","num_feature":"12","num_nodes":"21","size_leaf_vector":"1"}},{"base_weights":[2.7116023E-2,1.20793484E-1,-3.91362E-1,-1.17226526E-1,2.9526007E-1,1.7356504E-2,-5.62286E-1,-5.3386503E-1,1.14904605E-1,-8.587194E-2,4.4993323E-1,-1.7051559E-2,-6.777345E-2,-1.5249396E-2,-7.25489E-2,-1.5884576E-2,4.2056255E-2,4.8374657E-2,-2.9981468E-2,6.248591E-2,5.3394083E-3],"categories":[],"categories_nodes":[],"categories_segments":[],"categories_sizes":[],"default_left":[0,0,0,0,0,0,0,0,0,0,0,0,0,0,0,0,0,0,0,0,0],"id":1,"left_children":[1,3,5,7,9,-1,11,13,15,17,19,-1,-1,-1,-1,-1,-1,-1,-1,-1,-1],"loss_changes":[5.7907395E0,5.0375624E0,2.707954E0,5.0588555E0,4.1536026E0,0E0,8.338046E-1,1.2534547E0,2.912304E0,2.7030137E0,3.4219227E0,0E0,0E0,0E0,0E0,0E0,0E0,0E0,0E0,0E0,0E0],"parents":[2147483647,0,0,1,1,2,2,3,3,4,4,6,6,7,7,8,8,9,9,10,10],"right_children":[2,4,6,8,10,-1,12,14,16,18,20,-1,-1,-1,-1,-1,-1,-1,-1,-1,-1],"split_conditions":[1.5092721E-5,-4.0587943E-2,-2.339185E-6,-3.8049053E-9,-4.5527223E-8,1.7356504E-2,-1.1679793E-9,-4.0530704E-6,1.359202E-6,-1.0072338E-8,1.4758444E-1,-1.7051559E-2,-6.777345E-2,-1.5249396E-2,-7.25489E-2,-1.5884576E-2,4.2056255E-2,4.8374657E-2,-2.9981468E-2,6.248591E-2,5.3394083E-3],"split_indices":[2,11,0,5,3,0,4,0,0,5,11,0,0,0,0,0,0,0,0,0,0],"split_type":[0,0,0,0,0,0,0,0,0,0,0,0,0,0,0,0,0,0,0,0,0],"sum_hessian":[1.4550964E2,1.19475975E2,2.6033674E1,5.0672688E1,6.880328E1,6.043532E0,1.9990143E1,1.7665709E1,3.300698E1,1.9990143E1,4.881314E1,5.1137576E0,1.4876386E1,6.5084186E0,1.11572895E1,1.7665709E1,1.5341272E1,5.1137576E0,1.4876386E1,3.3471867E1,1.5341272E1],"tree_param":{"num_deleted":"0","num_feature":"12","num_nodes":"21","size_leaf_vector":"1"}},{"base_weights":[3.180309E-2,5.657063E-1,-5.600378E-1,-5.6879267E-2,8.014089E-1,-3.3824526E-2,-5.8131136E-2,4.9011637E-2,-5.2309852E-2,1.2568103E0,4.163519E-1,1.6065201E-1,6.770652E-2,1.12005554E-1,1.0228431E-2],"categories":[],"categories_nodes":[],"categories_segments":[],"categories_sizes":[],"default_left":[0,0,0,0,0,0,0,0,0,0,0,0,0,0,0],"id":2,"left_children":[1,3,5,7,9,-1,-1,-1,-1,11,13,-1,-1,-1,-1],"loss_changes":[2.8757233E1,7.0623865E0,7.1544647E-3,3.8432367E0,5.570551E0,0E0,0E0,0E0,0E0,2.0397778E0,4.3775463E0,0E0,0E0,0E0,0E0],"parents":[2147483647,0,0,1,1,2,2,3,3,4,4,9,9,10,10],"right_children":[2,4,6,8,10,-1,-1,-1,-1,12,14,-1,-1,-1,-1],"split_conditions":[2.3954178E1,-3.6685576E-6,-1.27010035E-5,-1.6384316E-9,3.950041E-6,-3.3824526E-2,-5.8131136E-2,4.9011637E-2,-5.2309852E-2,-4.0587943E-2,-1.1129623E-6,1.6065201E-1,6.770652E-2,1.12005554E-1,1.0228431E-2],"split_indices":[10,1,2,5,1,0,0,0,0,11,2,0,0,0,0],"split_type":[0,0,0,0,0,0,0,0,0,0,0,0,0,0,0],"sum_hessian":[8.900538E1,4.6816284E1,4.2189095E1,1.306501E1,3.3751274E1,5.1715665E0,3.701753E1,5.9881296E0,7.0768805E0,1.4425949E1,1.9325327E1,7.8934436E0,6.532505E0,5.1715665E0,1.4153761E1],"tree_param":{"num_deleted":"0","num_feature":"12","num_nodes":"15","size_leaf_vector":"1"}},{"base_weights":[-2.5414464E-3,-3.291407E-1,1.2327261E0,-4.4327348E-1,6.1676414E-3,3.600608E-2,1.8703097E-1,-1.3093519E-2,-4.941709E-1,-2.9460052E-2,-5.248018E-2],"categories":[],"categories_nodes":[],"categories_segments":[],"categories_sizes":[],"default_left":[0,0,0,0,0,0,0,0,0,0,0],"id":3,"left_children":[1,3,5,7,-1,-1,-1,-1,9,-1,-1],"loss_changes":[2.2262466E1,1.9737611E0,5.7470837E0,4.7414446E-1,0E0,0E0,0E0,0E0,2.1361828E-2,0E0,0E0],"parents":[2147483647,0,0,1,1,2,2,3,3,8,8],"right_children":[2,4,6,8,-1,-1,-1,-1,10,-1,-1],"split_conditions":[1.441224E-5,5.9536487E-6,8.540301E-6,-1.1685812E-5,6.1676414E-3,3.600608E-2,1.8703097E-1,-1.3093519E-2,3.8994622E0,-2.9460052E-2,-5.248018E-2],"split_indices":[2,2,0,0,0,0,0,0,10,0,0],"split_type":[0,0,0,0,0,0,0,0,0,0,0],"sum_hessian":[5.3176243E1,4.2636806E1,1.0539435E1,3.2895813E1,9.7409935E0,5.110029E0,5.429406E0,5.110029E0,2.7785784E1,5.110029E0,2.2675755E1],"tree_param":{"num_deleted":"0","num_feature":"12","num_nodes":"11","size_leaf_vector":"1"}},{"base_weights":[1.0851744E-1,-4.6197195E-2,1.06984966E-1],"categories":[],"categories_nodes":[],"categories_segments":[],"categories_sizes":[],"default_left":[0,0,0],"id":4,"left_children":[1,-1,-1],"loss_changes":[8.907418E0,0E0,0E0],"parents":[2147483647,0,0],"right_children":[2,-1,-1],"split_conditions":[6.362872E-6,-4.6197195E-2,1.06984966E-1],"split_indices":[2,0,0],"split_type":[0,0,0],"sum_hessian":[1.4340481E1,9.325711E0,5.014769E0],"tree_param":{"num_deleted":"0","num_feature":"12","num_nodes":"3","size_leaf_vector":"1"}},{"base_weights":[1.9824423E-2,-5.8996063E-1,7.9186624E-1,-3.2255986E-1,-7.105924E-1,5.77415E-1,9.892305E-1,6.688223E-3,-4.8507792E-1,-3.260076E-2,-7.437467E-2,7.441212E-1,4.538582E-3,4.438141E-2,1.0733966E0,-5.8891755E-2,-1.4265652E-2,8.835684E-2,1.4234312E-2,1.15199745E-1,6.0564548E-2],"categories":[],"categories_nodes":[],"categories_segments":[],"categories_sizes":[],"default_left":[0,0,0,0,0,0,0,0,0,0,0,0,0,0,0,0,0,0,0,0,0],"id":5,"left_children":[1,3,5,7,9,11,13,-1,15,-1,-1,17,-1,-1,19,-1,-1,-1,-1,-1,-1],"loss_changes":[7.192871E1,2.5249596E0,2.282013E0,1.8283288E0,4.9716377E-1,3.044711E0,1.0707397E0,0E0,6.32154E-1,0E0,0E0,2.0865583E0,0E0,0E0,3.49823E-1,0E0,0E0,0E0,0E0,0E0,0E0],"parents":[2147483647,0,0,1,1,2,2,3,3,4,4,5,5,6,6,8,8,11,11,14,14],"right_children":[2,4,6,8,10,12,14,-1,16,-1,-1,18,-1,-1,20,-1,-1,-1,-1,-1,-1],"split_conditions":[3.32646E1,-1.3543307E-6,5.0764263E1,-9.028547E-9,-1.46779885E-5,4.7068306E1,4.6932373E1,6.688223E-3,8.728506E-9,-3.260076E-2,-7.437467E-2,5.4351017E1,4.538582E-3,4.438141E-2,5.4069725E1,-5.8891755E-2,-1.4265652E-2,8.835684E-2,1.4234312E-2,1.15199745E-1,6.0564548E-2],"split_indices":[10,1,10,5,0,10,7,0,5,0,0,6,0,0,7,0,0,0,0,0,0],"split_type":[0,0,0,0,0,0,0,0,0,0,0,0,0,0,0,0,0,0,0,0,0],"sum_hessian":[1.5079405E2,8.438206E1,6.6411995E1,2.7374891E1,5.7007168E1,3.3709595E1,3.27024E1,8.233476E0,1.9141417E1,5.384207E0,5.162296E1,2.536353E1,8.346065E0,5.2104573E0,2.7491941E1,1.4135077E1,5.0063386E0,2.0211706E1,5.151824E0,2.2284424E1,5.2075176E0],"tree_param":{"num_deleted":"0","num_feature":"12","num_nodes":"21","size_leaf_vector":"1"}},{"base_weights":[1.0361831E-2,-3.367589E-1,1.8234737E-1,-1.3180421E-1,-5.6693447E-1,3.8729262E-1,-2.7351302E-1,-5.1243526E-1,2.7473974E-1,-3.2988343E-2,-7.182533E-2,1.0334041E-1,6.208909E-1,3.4198154E-2,-4.0648547E-1,-2.9642839E-2,-6.725873E-2,6.880682E-2,-3.445456E-2,-1.3288244E-2,8.752834E-2,9.010709E-2,1.928035E-2,-5.4410636E-2,4.375724E-3],"categories":[],"categories_nodes":[],"categories_segments":[],"categories_sizes":[],"default_left":[0,0,0,0,0,0,0,0,0,0,0,0,0,0,0,0,0,0,0,0,0,0,0,0,0],"id":6,"left_children":[1,3,5,7,9,11,13,15,17,-1,-1,19,21,-1,23,-1,-1,-1,-1,-1,-1,-1,-1,-1,-1],"loss_changes":[8.750879E0,2.216807E0,9.259701E0,4.3185296E0,5.728903E-1,4.4466467E0,2.6740038E0,2.9505396E-1,3.7452593E0,0E0,0E0,5.93218E0,4.2774143E0,0E0,1.6303625E0,0E0,0E0,0E0,0E0,0E0,0E0,0E0,0E0,0E0,0E0],"parents":[2147483647,0,0,1,1,2,2,3,3,4,4,5,5,6,6,7,7,8,8,11,11,12,12,14,14],"right_children":[2,4,6,8,10,12,14,16,18,-1,-1,20,22,-1,24,-1,-1,-1,-1,-1,-1,-1,-1,-1,-1],"split_conditions":[-7.49065E-9,7.361729E-6,4.4208675E1,-2.9057106E-2,1.159638E0,-2.9260066E-1,-5.5297855E-9,5.0211174E1,-1.3928521E-8,-3.2988343E-2,-7.182533E-2,1.0335227E-8,4.9780164E0,3.4198154E-2,5.0767267E-6,-2.9642839E-2,-6.725873E-2,6.880682E-2,-3.445456E-2,-1.3288244E-2,8.752834E-2,9.010709E-2,1.928035E-2,-5.4410636E-2,4.375724E-3],"split_indices":[5,2,10,11,8,8,5,7,5,0,0,5,8,0,2,0,0,0,0,0,0,0,0,0,0],"split_type":[0,0,0,0,0,0,0,0,0,0,0,0,0,0,0,0,0,0,0,0,0,0,0,0,0],"sum_hessian":[1.4455292E2,4.757453E1,9.697838E1,2.5997904E1,2.1576628E1,6.700483E1,2.997355E1,1.3292342E1,1.2705562E1,9.645838E0,1.1930791E1,3.0893898E1,3.6110935E1,5.0458436E0,2.4927708E1,6.873096E0,6.4192467E0,7.553245E0,5.1523166E0,2.4289047E1,6.60485E0,2.1158186E1,1.4952747E1,1.8932375E1,5.995332E0],"tree_param":{"num_deleted":"0","num_feature":"12","num_nodes":"25","size_leaf_vector":"1"}},{"base_weights":[-9.6509345E-3,7.0085347E-1,-2.267299E-1,9.5230067E-1,1.4299926E-2,-4.3013883E-1,-7.821169E-2,1.2901933E-1,4.572506E-2,-4.6995054E-3,-5.2233227E-2,7.976853E-2,-4.584151E-2,-5.0315868E-2,2.3971662E-2],"categories":[],"categories_nodes":[],"categories_segments":[],"categories_sizes":[],"default_left":[0,0,0,0,0,0,0,0,0,0,0,0,0,0,0],"id":7,"left_children":[1,3,5,7,-1,9,11,-1,-1,-1,-1,13,-1,-1,-1],"loss_changes":[1.342953E1,2.7225924E0,1.9801798E0,1.7304068E0,0E0,9.613137E-1,2.4242144E0,0E0,0E0,0E0,0E0,2.8184E0,0E0,0E0,0E0],"parents":[2147483647,0,0,1,1,2,2,3,3,5,5,6,6,11,11],"right_children":[2,4,6,8,-1,10,12,-1,-1,-1,-1,14,-1,-1,-1],"split_conditions":[3.3761021E-1,1.6068528E0,-4.303592E-10,-3.5162994E-1,1.4299926E-2,7.145584E-1,5.237112E1,1.2901933E-1,4.572506E-2,-4.6995054E-3,-5.2233227E-2,-1.947752E-1,-4.584151E-2,-5.0315868E-2,2.3971662E-2],"split_indices":[9,8,4,11,0,9,7,0,0,0,0,11,0,0,0],"split_type":[0,0,0,0,0,0,0,0,0,0,0,0,0,0,0],"sum_hessian":[8.5041275E1,1.9380358E1,6.566092E1,1.2871556E1,6.5088024E0,2.6909609E1,3.875131E1,6.6954436E0,6.1761127E0,5.51204E0,2.1397568E1,2.793436E1,1.0816951E1,5.5525293E0,2.238183E1],"tree_param":{"num_deleted":"0","num_feature":"12","num_nodes":"15","size_leaf_vector":"1"}},{"base_weights":[2.732493E-2,-2.8671727E-1,1.1151665E0,2.2181218E-2,-4.5012903E-1,1.7990102E-1,2.9734502E-2,-4.903497E-2,7.949322E-2,-5.202341E-2,-1.3012436E-2],"categories":[],"categories_nodes":[],"categories_segments":[],"categories_sizes":[],"default_left":[0,0,0,0,0,0,0,0,0,0,0],"id":8,"left_children":[1,3,5,7,9,-1,-1,-1,-1,-1,-1],"loss_changes":[1.785879E1,2.0611062E0,6.011422E0,6.335366E0,5.2955055E-1,0E0,0E0,0E0,0E0,0E0,0E0],"parents":[2147483647,0,0,1,1,2,2,3,3,4,4],"right_children":[2,4,6,8,10,-1,-1,-1,-1,-1,-1],"split_conditions":[1.4694958E-5,1.2230521E1,5.550513E0,5.161484E1,8.788949E-6,1.7990102E-1,2.9734502E-2,-4.903497E-2,7.949322E-2,-5.202341E-2,-1.3012436E-2],"split_indices":[2,10,10,6,1,0,0,0,0,0,0],"split_type":[0,0,0,0,0,0,0,0,0,0,0],"sum_hessian":[5.0339596E1,3.9634262E1,1.0705333E1,1.4011841E1,2.5622421E1,5.1768284E0,5.528504E0,8.644069E0,5.367772E0,2.0504656E1,5.1177673E0],"tree_param":{"num_deleted":"0","num_feature":"12","num_nodes":"11","size_leaf_vector":"1"}},{"base_weights":[-1.2993349E-1,4.0563103E-2,-4.5736235E-2],"categories":[],"categories_nodes":[],"categories_segments":[],"categories_sizes":[],"default_left":[0,0,0],"id":9,"left_children":[1,-1,-1],"loss_changes":[2.717084E0,0E0,0E0],"parents":[2147483647,0,0],"right_children":[2,-1,-1],"split_conditions":[6.8220836E-1,4.0563103E-2,-4.5736235E-2],"split_indices":[9,0,0],"split_type":[0,0,0],"sum_hessian":[1.34364395E1,5.007311E0,8.429129E0],"tree_param":{"num_deleted":"0","num_feature":"12","num_nodes":"3","size_leaf_vector":"1"}},{"base_weights":[-2.2238908E-2,-5.357731E-1,6.8438673E-1,-2.1240106E-1,-5.932356E-1,2.4825675E-2,7.3737824E-1,1.5957197E-2,-5.2526366E-2,-6.3545954E-1,-2.4936644E-2,5.54799E-1,9.6395713E-1,-6.775176E-2,-1.4870378E-2,9.417649E-2,3.6441386E-2,1.05799735E-1,5.497053E-2],"categories":[],"categories_nodes":[],"categories_segments":[],"categories_sizes":[],"default_left":[0,0,0,0,0,0,0,0,0,0,0,0,0,0,0,0,0,0,0],"id":10,"left_children":[1,3,5,7,9,-1,11,-1,-1,13,-1,15,17,-1,-1,-1,-1,-1,-1],"loss_changes":[5.3062782E1,1.4471359E0,1.2396088E0,1.7516956E0,8.7719154E-1,0E0,1.714859E0,0E0,0E0,1.1865673E0,0E0,2.0489817E0,3.1092262E-1,0E0,0E0,0E0,0E0,0E0,0E0],"parents":[2147483647,0,0,1,1,2,2,3,3,4,4,6,6,9,9,11,11,12,12],"right_children":[2,4,6,8,10,-1,12,-1,-1,14,-1,16,18,-1,-1,-1,-1,-1,-1],"split_conditions":[3.5065937E1,-1.0436372E-5,4.6571682E1,5.268209E1,5.3841335E1,2.4825675E-2,5.102808E1,1.5957197E-2,-5.2526366E-2,1.324023E-1,-2.4936644E-2,4.089909E1,5.384022E1,-6.775176E-2,-1.4870378E-2,9.417649E-2,3.6441386E-2,1.05799735E-1,5.497053E-2],"split_indices":[10,2,7,6,7,0,10,0,0,11,0,10,7,0,0,0,0,0,0],"split_type":[0,0,0,0,0,0,0,0,0,0,0,0,0,0,0,0,0,0,0],"sum_hessian":[1.4421779E2,8.366022E1,6.0557564E1,1.3331749E1,7.032847E1,7.1767173E0,5.3380848E1,6.3143563E0,7.0173926E0,6.188196E1,8.4465065E0,3.1470352E1,2.1910496E1,5.659959E1,5.2823725E0,9.076121E0,2.239423E1,1.6590302E1,5.3201942E0],"tree_param":{"num_deleted":"0","num_feature":"12","num_nodes":"19","size_leaf_vector":"1"}},{"base_weights":[-1.3009991E-2,7.274071E-2,-5.455277E-1,-1.8942682E-1,1.8196848E-1,-1.675045E-2,-6.5835424E-2,2.9827273E-2,-2.7456537E-1,2.4587485E-1,-3.2689735E-2,9.355496E-3,-4.1278593E-2,-3.4150535E-3,3.3670414E-2],"categories":[],"categories_nodes":[],"categories_segments":[],"categories_sizes":[],"default_left":[0,0,0,0,0,0,0,0,0,0,0,0,0,0,0],"id":11,"left_children":[1,3,5,7,9,-1,-1,-1,11,13,-1,-1,-1,-1,-1],"loss_changes":[6.8016715E0,3.7120812E0,7.707186E-1,1.670539E0,3.0450733E0,0E0,0E0,0E0,1.7225258E0,2.086063E0,0E0,0E0,0E0,0E0,0E0],"parents":[2147483647,0,0,1,1,2,2,3,3,4,4,8,8,9,9],"right_children":[2,4,6,8,10,-1,-1,-1,12,14,-1,-1,-1,-1,-1],"split_conditions":[1.7928875E-5,-1.16642244E-1,4.850331E1,-1.1441254E-5,1.464599E-5,-1.675045E-2,-6.5835424E-2,2.9827273E-2,4.8308624E1,-4.6524196E-8,-3.2689735E-2,9.355496E-3,-4.1278593E-2,-3.4150535E-3,3.3670414E-2],"split_indices":[0,11,7,0,2,0,0,0,7,3,0,0,0,0,0],"split_type":[0,0,0,0,0,0,0,0,0,0,0,0,0,0,0],"sum_hessian":[1.4708217E2,1.2742626E2,1.9655901E1,3.7260265E1,9.0166E1,5.0892105E0,1.45666895E1,5.165771E0,3.2094494E1,8.056499E1,9.601008E0,8.849344E0,2.324515E1,1.9884712E1,6.068028E1],"tree_param":{"num_deleted":"0","num_feature":"12","num_nodes":"15","size_leaf_vector":"1"}},{"base_weights":[3.2477394E-2,5.748372E-1,-4.6978718E-1,7.230128E-1,-8.503301E-3,-1.087331E-2,-5.4456323E-1,4.6547467E-1,1.0564351E0,-3.2651678E-2,-5.6769636E-2,6.926067E-2,-2.4483006E-3,1.4308514E-1,5.1969375E-2],"categories":[],"categories_nodes":[],"categories_segments":[],"categories_sizes":[],"default_left":[0,0,0,0,0,0,0,0,0,0,0,0,0,0,0],"id":12,"left_children":[1,3,5,7,-1,-1,9,11,13,-1,-1,-1,-1,-1,-1],"loss_changes":[2.4713223E1,4.323825E0,1.2134094E0,2.574129E0,0E0,0E0,1.0351181E-2,2.4576674E0,2.2250538E0,0E0,0E0,0E0,0E0,0E0,0E0],"parents":[2147483647,0,0,1,1,2,2,3,3,6,6,7,7,8,8],"right_children":[2,4,6,8,-1,-1,10,12,14,-1,-1,-1,-1,-1,-1],"split_conditions":[1.6641653E1,5.275225E1,3.0695137E1,5.146572E1,-8.503301E-3,-1.087331E-2,-7.566908E-8,5.303682E0,5.5309395E1,-3.2651678E-2,-5.6769636E-2,6.926067E-2,-2.4483006E-3,1.4308514E-1,5.1969375E-2],"split_indices":[10,7,10,6,0,0,3,10,6,0,0,0,0,0,0],"split_type":[0,0,0,0,0,0,0,0,0,0,0,0,0,0,0],"sum_hessian":[8.8729965E1,4.259267E1,4.613729E1,3.470409E1,7.8885837E0,8.336904E0,3.780039E1,2.093205E1,1.37720375E1,5.0754275E0,3.272496E1,1.4019403E1,6.9126477E0,7.13149E0,6.6405473E0],"tree_param":{"num_deleted":"0","num_feature":"12","num_nodes":"15","size_leaf_vector":"1"}},{"base_weights":[-1.2926905E-2,-3.1346703E-1,9.427792E-1,4.3509543E-2,-4.4481793E-1,1.5503748E-1,3.0630102E-2,3.3257192E-3,-5.259198E-2],"categories":[],"categories_nodes":[],"categories_segments":[],"categories_sizes":[],"default_left":[0,0,0,0,0,0,0,0,0],"id":13,"left_children":[1,3,5,-1,7,-1,-1,-1,-1],"loss_changes":[1.5588222E1,4.249938E0,4.5474854E0,0E0,1.3974652E0,0E0,0E0,0E0,0E0],"parents":[2147483647,0,0,1,1,2,2,4,4],"right_children":[2,4,6,-1,8,-1,-1,-1,-1],"split_conditions":[1.441224E-5,3.2190436E-1,5.012541E0,4.3509543E-2,4.4133844E0,1.5503748E-1,3.0630102E-2,3.3257192E-3,-5.259198E-2],"split_indices":[2,9,10,0,10,0,0,0,0],"split_type":[0,0,0,0,0,0,0,0,0],"sum_hessian":[5.2242336E1,4.025529E1,1.1987044E1,5.663994E0,3.4591297E1,5.3980684E0,6.5889764E0,5.102614E0,2.9488684E1],"tree_param":{"num_deleted":"0","num_feature":"12","num_nodes":"9","size_leaf_vector":"1"}},{"base_weights":[4.9814593E-2,-4.605378E-2,9.051819E-2],"categories":[],"categories_nodes":[],"categories_segments":[],"categories_sizes":[],"default_left":[0,0,0],"id":14,"left_children":[1,-1,-1],"loss_changes":[7.035942E0,0E0,0E0],"parents":[2147483647,0,0],"right_children":[2,-1,-1],"split_conditions":[6.713562E-6,-4.605378E-2,9.051819E-2],"split_indices":[2,0,0],"split_type":[0,0,0],"sum_hessian":[1.41626215E1,9.159327E0,5.0032945E0],"tree_param":{"num_deleted":"0","num_feature":"12","num_nodes":"3","size_leaf_vector":"1"}},{"base_weights":[-1.630165E-2,-6.2720424E-1,2.4818936E-1,-7.013396E-2,-4.56069E-1,9.319891E-2,1.8812932E-1,-2.7354017E-2,-6.4154856E-2,3.3348292E-1,4.327517E-3,2.2498367E-2,8.4577724E-2,-2.7219528E-2,2.093583E-2],"categories":[],"categories_nodes":[],"categories_segments":[],"categories_sizes":[],"default_left":[0,0,0,0,0,0,0,0,0,0,0,0,0,0,0],"id":15,"left_children":[1,3,5,-1,7,-1,9,-1,-1,11,13,-1,-1,-1,-1],"loss_changes":[2.4435661E1,2.59758E-1,4.1608324E0,0E0,3.8882113E-1,0E0,2.6250448E0,0E0,0E0,2.8603535E0,2.5757842E0,0E0,0E0,0E0,0E0],"parents":[2147483647,0,0,1,1,2,2,4,4,6,6,9,9,10,10],"right_children":[2,4,6,-1,8,-1,10,-1,-1,12,14,-1,-1,-1,-1],"split_conditions":[5.6552416E-1,3.2190436E-1,-1.6287406E-5,-7.013396E-2,1.6610245E-1,9.319891E-2,3.5834296E-6,-2.7354017E-2,-6.4154856E-2,1.0936742E0,1.7452215E0,2.2498367E-2,8.4577724E-2,-2.7219528E-2,2.093583E-2],"split_indices":[9,9,1,0,8,0,2,0,0,9,8,0,0,0,0],"split_type":[0,0,0,0,0,0,0,0,0,0,0,0,0,0,0],"sum_hessian":[1.4926773E2,4.4685337E1,1.045824E2,2.9017065E1,1.5668274E1,7.2719264E0,9.731047E1,9.1442585E0,6.5240154E0,5.388384E1,4.342663E1,4.5653923E1,8.229917E0,1.8350254E1,2.5076374E1],"tree_param":{"num_deleted":"0","num_feature":"12","num_nodes":"15","size_leaf_vector":"1"}},{"base_weights":[-6.8124034E-3,1.1124029E-1,-4.6663547E-1,-2.6698035E-1,2.7445942E-1,-7.058302E-2,-9.145628E-2,-3.8106194E-1,1.9539108E-2,-3.6056675E-2,3.2379583E-1,-3.7812512E-2,2.2637986E-2,-1.5454868E-2,-5.900529E-2,-3.0021986E-2,3.847715E-2],"categories":[],"categories_nodes":[],"categories_segments":[],"categories_sizes":[],"default_left":[0,0,0,0,0,0,0,0,0,0,0,0,0,0,0,0,0],"id":16,"left_children":[1,3,5,7,9,-1,11,13,-1,-1,15,-1,-1,-1,-1,-1,-1],"loss_changes":[8.160856E0,7.4610014E0,2.691329E0,2.0041213E0,2.751278E0,0E0,1.2796403E0,1.3139219E0,0E0,0E0,3.1045017E0,0E0,0E0,0E0,0E0,0E0,0E0],"parents":[2147483647,0,0,1,1,2,2,3,3,4,4,6,6,7,7,10,10],"right_children":[2,4,6,8,10,-1,12,14,-1,-1,16,-1,-1,-1,-1,-1,-1],"split_conditions":[4.9142975E1,-8.329304E-9,5.776194E1,5.3450405E1,-9.789703E-8,-7.058302E-2,-1.1381561E-6,-3.2741518E-8,1.9539108E-2,-3.6056675E-2,-8.107729E0,-3.7812512E-2,2.2637986E-2,-1.5454868E-2,-5.900529E-2,-3.0021986E-2,3.847715E-2],"split_indices":[10,5,10,7,3,0,1,3,0,0,10,0,0,0,0,0,0],"split_type":[0,0,0,0,0,0,0,0,0,0,0,0,0,0,0,0,0],"sum_hessian":[1.4838185E2,1.1867253E2,2.9709318E1,3.558266E1,8.3089874E1,1.760437E1,1.2104948E1,2.8681808E1,6.900854E0,5.53526E0,7.755461E1,6.264797E0,5.8401513E0,1.45986595E1,1.4083149E1,6.554389E0,7.100022E1],"tree_param":{"num_deleted":"0","num_feature":"12","num_nodes":"17","size_leaf_vector":"1"}},{"base_weights":[1.1608974E-2,6.8988365E-1,-1.706524E-1,3.8825938E-1,1.2312832E-1,1.5846504E-1,-3.5551897E-1,7.452945E-2,-7.907024E-3,3.6546624E-1,-3.8185976E-2,2.0272171E-2,-4.665259E-1,6.467136E-2,-2.2060584E-2,-5.074435E-2,-1.7575523E-2],"categories":[],"categories_nodes":[],"categories_segments":[],"categories_sizes":[],"default_left":[0,0,0,0,0,0,0,0,0,0,0,0,0,0,0,0,0],"id":17,"left_children":[1,3,5,7,-1,9,11,-1,-1,13,-1,-1,15,-1,-1,-1,-1],"loss_changes":[1.09338455E1,2.58041E0,4.300934E0,2.3095567E0,0E0,3.0234127E0,2.8818974E0,0E0,0E0,3.2996626E0,0E0,0E0,3.608036E-1,0E0,0E0,0E0,0E0],"parents":[2147483647,0,0,1,1,2,2,3,3,5,5,6,6,9,9,12,12],"right_children":[2,4,6,8,-1,10,12,-1,-1,14,-1,-1,16,-1,-1,-1,-1],"split_conditions":[2.9297227E-1,1.8331677E-1,-5.392151E-1,-2.3196776E-1,1.2312832E-1,6.7791683E-9,5.8236825E-1,7.452945E-2,-7.907024E-3,5.3930573E-2,-3.8185976E-2,2.0272171E-2,1.5302872E-9,6.467136E-2,-2.2060584E-2,-5.074435E-2,-1.7575523E-2],"split_indices":[9,9,8,11,0,5,9,0,0,11,0,0,4,0,0,0,0],"split_type":[0,0,0,0,0,0,0,0,0,0,0,0,0,0,0,0,0],"sum_hessian":[8.6492546E1,1.7729214E1,6.876333E1,1.2488671E1,5.2405424E0,2.4783731E1,4.39796E1,6.7425995E0,5.7460713E0,1.8152885E1,6.6308465E0,7.1577787E0,3.682182E1,1.2196495E1,5.9563904E0,3.1626183E1,5.195637E0],"tree_param":{"num_deleted":"0","num_feature":"12","num_nodes":"17","size_leaf_vector":"1"}},{"base_weights":[-7.853151E-3,-3.0065894E-1,8.0064934E-1,-7.031619E-2,-4.7329286E-1,1.442135E-1,4.2976863E-3,2.3240803E-2,-4.7277313E-2,-2.8671095E-2,-5.1098008E-2],"categories":[],"categories_nodes":[],"categories_segments":[],"categories_sizes":[],"default_left":[0,0,0,0,0,0,0,0,0,0,0],"id":18,"left_children":[1,3,5,7,9,-1,-1,-1,-1,-1,-1],"loss_changes":[1.2687925E1,1.5305426E0,6.8650913E0,2.305546E0,1.0337353E-2,0E0,0E0,0E0,0E0,0E0,0E0],"parents":[2147483647,0,0,1,1,2,2,3,3,4,4],"right_children":[2,4,6,8,10,-1,-1,-1,-1,-1,-1],"split_conditions":[1.441224E-5,-1.4125013E-8,5.012541E0,3.32646E1,4.8308624E1,1.442135E-1,4.2976863E-3,2.3240803E-2,-4.7277313E-2,-2.8671095E-2,-5.1098008E-2],"split_indices":[2,3,10,10,7,0,0,0,0,0,0],"split_type":[0,0,0,0,0,0,0,0,0,0,0],"sum_hessian":[5.1578804E1,3.832663E1,1.3252173E1,1.7021894E1,2.1304735E1,6.6871247E0,6.565049E0,9.95578E0,7.066115E0,5.0266123E0,1.6278124E1],"tree_param":{"num_deleted":"0","num_feature":"12","num_nodes":"11","size_leaf_vector":"1"}},{"base_weights":[6.1011296E-2,8.892008E-2,-4.5921564E-2],"categories":[],"categories_nodes":[],"categories_segments":[],"categories_sizes":[],"default_left":[0,0,0],"id":19,"left_children":[1,-1,-1],"loss_changes":[6.8085113E0,0E0,0E0],"parents":[2147483647,0,0],"right_children":[2,-1,-1],"split_conditions":[-5.8644734E-9,8.892008E-2,-4.5921564E-2],"split_indices":[5,0,0],"split_type":[0,0,0],"sum_hessian":[1.3854889E1,5.0716624E0,8.783227E0],"tree_param":{"num_deleted":"0","num_feature":"12","num_nodes":"3","size_leaf_vector":"1"}},{"base_weights":[-1.9816034E-2,-5.989178E-1,2.2102213E-1,-6.808755E-2,-3.9233902E-1,7.084346E-1,9.916203E-2,-6.15133E-2,-1.5114002E-2,9.413933E-2,3.3990745E-2,-2.680942E-2,4.632858E-1,-1.7261766E-2,3.9031826E-2,9.7031906E-2,1.6301066E-2],"categories":[],"categories_nodes":[],"categories_segments":[],"categories_sizes":[],"default_left":[0,0,0,0,0,0,0,0,0,0,0,0,0,0,0,0,0],"id":20,"left_children":[1,3,5,-1,7,9,11,-1,-1,-1,-1,13,15,-1,-1,-1,-1],"loss_changes":[1.9293583E1,4.2065144E-1,5.7364693E0,0E0,6.5391326E-1,1.3447313E0,3.653146E0,0E0,0E0,0E0,0E0,3.7114983E0,2.9562483E0,0E0,0E0,0E0,0E0],"parents":[2147483647,0,0,1,1,2,2,4,4,5,5,6,6,11,11,12,12],"right_children":[2,4,6,-1,8,10,12,-1,-1,-1,-1,14,16,-1,-1,-1,-1],"split_conditions":[5.7372946E-1,3.3665413E-1,-1.7543507E-1,-6.808755E-2,-2.339185E-6,1.568715E-6,1.324023E-1,-6.15133E-2,-1.5114002E-2,9.413933E-2,3.3990745E-2,5.3516207E0,-3.5740231E-6,-1.7261766E-2,3.9031826E-2,9.7031906E-2,1.6301066E-2],"split_indices":[9,9,11,0,0,1,11,0,0,0,0,8,1,0,0,0,0],"split_type":[0,0,0,0,0,0,0,0,0,0,0,0,0,0,0,0,0],"sum_hessian":[1.3638606E2,3.96235E1,9.6762566E1,2.6724792E1,1.2898708E1,1.8390656E1,7.837191E1,5.899274E0,6.9994345E0,1.0315437E1,8.075219E0,5.891588E1,1.9456032E1,4.4090195E1,1.48256855E1,6.4066215E0,1.304941E1],"tree_param":{"num_deleted":"0","num_feature":"12","num_nodes":"17","size_leaf_vector":"1"}},{"base_weights":[6.229231E-3,1.9218373E-1,-2.9829443E-1,-5.2581966E-1,2.9049152E-1,-4.0644383E-1,-1.798112E-2,-3.248219E-2,-6.433455E-2,3.7391633E-1,-2.7098164E-1,-1.5170266E-1,-5.9461886E-1,-5.295346E-2,3.906645E-2,2.3986286E-2,6.729078E-2,-1.6389195E-2,-3.3767525E-2,-4.0816706E-2,4.0293384E-2,-3.141546E-2,-6.587059E-2],"categories":[],"categories_nodes":[],"categories_segments":[],"categories_sizes":[],"default_left":[0,0,0,0,0,0,0,0,0,0,0,0,0,0,0,0,0,0,0,0,0,0,0],"id":21,"left_children":[1,3,5,7,9,11,13,-1,-1,15,17,19,21,-1,-1,-1,-1,-1,-1,-1,-1,-1,-1],"loss_changes":[8.627902E0,6.828492E0,1.7441206E0,6.848884E-2,4.0280457E0,1.9059663E0,3.7878973E0,0E0,0E0,2.7808075E0,2.6252508E-2,2.87202E0,2.1739674E-1,0E0,0E0,0E0,0E0,0E0,0E0,0E0,0E0,0E0,0E0],"parents":[2147483647,0,0,1,1,2,2,3,3,4,4,5,5,6,6,9,9,10,10,11,11,12,12],"right_children":[2,4,6,8,10,12,14,-1,-1,16,18,20,22,-1,-1,-1,-1,-1,-1,-1,-1,-1,-1],"split_conditions":[3.5476994E1,9.852473E-2,8.152433E-10,-1.0705619E-8,1.7928875E-5,-7.2133327E-10,-4.2093475E-6,-3.248219E-2,-6.433455E-2,1.6641653E1,3.182056E-1,1.895314E-8,-4.8076885E-8,-5.295346E-2,3.906645E-2,2.3986286E-2,6.729078E-2,-1.6389195E-2,-3.3767525E-2,-4.0816706E-2,4.0293384E-2,-3.141546E-2,-6.587059E-2],"split_indices":[10,9,4,3,0,4,1,0,0,10,9,3,3,0,0,0,0,0,0,0,0,0,0],"split_type":[0,0,0,0,0,0,0,0,0,0,0,0,0,0,0,0,0,0,0,0,0,0,0],"sum_hessian":[1.5034993E2,9.357695E1,5.6772976E1,1.0745696E1,8.283125E1,4.0642487E1,1.613049E1,5.3535895E0,5.3921065E0,7.240693E1,1.0424321E1,1.8034517E1,2.2607971E1,7.031918E0,9.098571E0,5.1236965E1,2.1169964E1,5.327446E0,5.0968757E0,1.251271E1,5.5218062E0,5.3028927E0,1.7305079E1],"tree_param":{"num_deleted":"0","num_feature":"12","num_nodes":"23","size_leaf_vector":"1"}},{"base_weights":[3.2052808E-2,4.7508708E-1,-5.370328E-2,6.584633E-1,-1.9082248E-1,7.9282075E-1,6.7028054E-3,-1.4696846E-3,-3.37522E-2,1.0859465E-1,3.8573306E-2],"categories":[],"categories_nodes":[],"categories_segments":[],"categories_sizes":[],"default_left":[0,0,0,0,0,0,0,0,0,0,0],"id":22,"left_children":[1,3,-1,5,7,9,-1,-1,-1,-1,-1],"loss_changes":[2.151028E1,5.9787703E0,0E0,2.9511929E0,2.8247672E-1,3.246437E0,0E0,0E0,0E0,0E0,0E0],"parents":[2147483647,0,0,1,1,3,3,4,4,5,5],"right_children":[2,4,-1,6,8,10,-1,-1,-1,-1,-1],"split_conditions":[2.1630081E1,5.275225E1,-5.370328E-2,1.561499E-5,4.4133844E0,5.0067963E1,6.7028054E-3,-1.4696846E-3,-3.37522E-2,1.0859465E-1,3.8573306E-2],"split_indices":[10,7,0,1,10,7,0,0,0,0,0],"split_type":[0,0,0,0,0,0,0,0,0,0,0],"sum_hessian":[8.3304184E1,4.6932396E1,3.637179E1,3.680761E1,1.0124788E1,2.971638E1,7.09123E0,5.1008973E0,5.023891E0,1.6306904E1,1.3409473E1],"tree_param":{"num_deleted":"0","num_feature":"12","num_nodes":"11","size_leaf_vector":"1"}},{"base_weights":[5.4902487E-2,8.900727E-1,-2.010778E-1,1.075803E-2,1.5773058E-1,2.661827E-1,-4.125902E-1,-1.6179733E-2,6.1255958E-2,-4.7168997E-1,-1.2919443E-2,-2.8606428E-2,-5.093601E-2],"categories":[],"categories_nodes":[],"categories_segments":[],"categories_sizes":[],"default_left":[0,0,0,0,0,0,0,0,0,0,0,0,0],"id":23,"left_children":[1,3,5,-1,-1,7,9,-1,-1,11,-1,-1,-1],"loss_changes":[1.0921681E1,6.2686663E0,3.9916143E0,0E0,0E0,2.0035686E0,3.984747E-1,0E0,0E0,1.0360241E-2,0E0,0E0,0E0],"parents":[2147483647,0,0,1,1,2,2,5,5,6,6,9,9],"right_children":[2,4,6,-1,-1,8,10,-1,-1,12,-1,-1,-1],"split_conditions":[2.4346183E-1,-5.272202E-1,9.424583E0,1.075803E-2,1.5773058E-1,5.04777E1,9.087544E-6,-1.6179733E-2,6.1255958E-2,-9.043844E-6,-1.2919443E-2,-2.8606428E-2,-5.093601E-2],"split_indices":[9,11,10,0,0,7,1,0,0,1,0,0,0],"split_type":[0,0,0,0,0,0,0,0,0,0,0,0,0],"sum_hessian":[4.9249557E1,1.0972659E1,3.8276897E1,5.671527E0,5.3011327E0,1.184692E1,2.6429977E1,5.5376E0,6.30932E0,2.1319546E1,5.110431E0,5.0464177E0,1.6273129E1],"tree_param":{"num_deleted":"0","num_feature":"12","num_nodes":"13","size_leaf_vector":"1"}},{"base_weights":[1.09609954E-1,1.005188E-1,-4.6005983E-2],"categories":[],"categories_nodes":[],"categories_segments":[],"categories_sizes":[],"default_left":[0,0,0],"id":24,"left_children":[1,-1,-1],"loss_changes":[8.267277E0,0E0,0E0],"parents":[2147483647,0,0],"right_children":[2,-1,-1],"split_conditions":[-8.1853E-9,1.005188E-1,-4.6005983E-2],"split_indices":[5,0,0],"split_type":[0,0,0],"sum_hessian":[1.4298077E1,5.261679E0,9.036398E0],"tree_param":{"num_deleted":"0","num_feature":"12","num_nodes":"3","size_leaf_vector":"1"}},{"base_weights":[2.3631902E-2,-5.108816E-1,5.517873E-1,-2.763075E-1,-6.600686E-2,3.6683404E-1,7.5766736E-1,2.0201018E-2,-4.589467E-1,4.5580268E-1,-2.065873E-2,9.721353E-2,4.629046E-1,-6.6643157E-3,-6.0786534E-2,5.468067E-2,-6.229092E-3,1.44223245E-2,6.077102E-2],"categories":[],"categories_nodes":[],"categories_segments":[],"categories_sizes":[],"default_left":[0,0,0,0,0,0,0,0,0,0,0,0,0,0,0,0,0,0,0],"id":25,"left_children":[1,3,5,7,-1,9,11,-1,13,15,-1,-1,17,-1,-1,-1,-1,-1,-1],"loss_changes":[4.1810715E1,2.3944016E0,2.5578823E0,2.7435863E0,0E0,2.1944728E0,1.7186184E0,0E0,1.2602458E0,1.7291222E0,0E0,0E0,6.6716385E-1,0E0,0E0,0E0,0E0,0E0,0E0],"parents":[2147483647,0,0,1,1,2,2,3,3,5,5,6,6,8,8,9,9,12,12],"right_children":[2,4,6,8,-1,10,12,-1,14,16,-1,-1,18,-1,-1,-1,-1,-1,-1],"split_conditions":[3.2162506E1,2.2960155E-7,5.0764263E1,-8.329304E-9,-6.600686E-2,1.2111298E-5,5.776194E1,2.0201018E-2,-2.6380644E0,4.830418E1,-2.065873E-2,9.721353E-2,-3.5721591E-6,-6.6643157E-3,-6.0786534E-2,5.468067E-2,-6.229092E-3,1.44223245E-2,6.077102E-2],"split_indices":[10,1,10,5,0,1,10,0,8,10,0,0,0,0,0,0,0,0,0],"split_type":[0,0,0,0,0,0,0,0,0,0,0,0,0,0,0,0,0,0,0],"sum_hessian":[1.4610558E2,7.263196E1,7.347361E1,2.9344406E1,4.328755E1,4.016921E1,3.3304405E1,8.079298E0,2.1265106E1,3.495146E1,5.2177434E0,1.7947712E1,1.5356694E1,6.2494345E0,1.5015673E1,2.9682297E1,5.2691665E0,5.421433E0,9.935261E0],"tree_param":{"num_deleted":"0","num_feature":"12","num_nodes":"19","size_leaf_vector":"1"}},{"base_weights":[-1.2003863E-2,9.7538024E-2,-4.630196E-1,1.7900647E-1,-6.0611047E-2,-6.724835E-2,-1.373772E-1,7.7588476E-2,4.9469924E-1,1.757749E-2,-3.7791315E-2,-1.3360689E-2,2.4417747E-2,7.8786686E-2,-8.927084E-3],"categories":[],"categories_nodes":[],"categories_segments":[],"categories_sizes":[],"default_left":[0,0,0,0,0,0,0,0,0,0,0,0,0,0,0],"id":26,"left_children":[1,3,5,7,-1,-1,9,11,13,-1,-1,-1,-1,-1,-1],"loss_changes":[7.4513836E0,7.0700417E0,1.9176664E0,3.4710016E0,0E0,0E0,1.0299728E0,2.9930902E0,4.601185E0,0E0,0E0,0E0,0E0,0E0,0E0],"parents":[2147483647,0,0,1,1,2,2,3,3,6,6,7,7,8,8],"right_children":[2,4,6,8,-1,-1,10,12,14,-1,-1,-1,-1,-1,-1],"split_conditions":[5.0764263E1,2.624862E-5,5.776194E1,9.467297E-9,-6.0611047E-2,-6.724835E-2,6.232513E1,-3.7807543E-2,3.5065937E1,1.757749E-2,-3.7791315E-2,-1.3360689E-2,2.4417747E-2,7.8786686E-2,-8.927084E-3],"split_indices":[10,2,10,5,0,0,10,11,10,0,0,0,0,0,0],"split_type":[0,0,0,0,0,0,0,0,0,0,0,0,0,0,0],"sum_hessian":[1.48908E2,1.204396E2,2.8468414E1,1.0861029E2,1.1829303E1,1.6676464E1,1.179195E1,8.314522E1,2.5465078E1,5.2396817E0,6.5522685E0,3.6751286E1,4.6393932E1,1.6721373E1,8.743705E0],"tree_param":{"num_deleted":"0","num_feature":"12","num_nodes":"15","size_leaf_vector":"1"}},{"base_weights":[2.1556672E-2,3.9773762E-1,-4.3715346E-1,7.5532883E-1,1.9688079E-1,-1.0901435E-2,-5.2148646E-1,3.4655146E-2,9.9945806E-2,6.714498E-2,3.792302E-2,-5.4989215E-2,-3.1781074E-2,-1.1721796E-2,4.550711E-2],"categories":[],"categories_nodes":[],"categories_segments":[],"categories_sizes":[],"default_left":[0,0,0,0,0,0,0,0,0,0,0,0,0,0,0],"id":27,"left_children":[1,3,5,7,9,-1,11,-1,-1,-1,13,-1,-1,-1,-1],"loss_changes":[1.5187197E1,3.3222928E0,1.0411701E0,1.3530245E0,2.4109216E0,0E0,6.3352585E-3,0E0,0E0,0E0,1.68766E0,0E0,0E0,0E0,0E0],"parents":[2147483647,0,0,1,1,2,2,3,3,4,4,6,6,10,10],"right_children":[2,4,6,8,10,-1,12,-1,-1,-1,14,-1,-1,-1,-1],"split_conditions":[1.6641653E1,-5.67574E-7,3.0695137E1,-4.6413209E-7,-5.37369E-1,-1.0901435E-2,1.2334219E-8,3.4655146E-2,9.9945806E-2,6.714498E-2,2.2218364E-5,-5.4989215E-2,-3.1781074E-2,-1.1721796E-2,4.550711E-2],"split_indices":[10,2,10,1,11,0,5,0,0,0,2,0,0,0,0],"split_type":[0,0,0,0,0,0,0,0,0,0,0,0,0,0,0],"sum_hessian":[8.60045E1,4.7326065E1,3.867844E1,1.6028872E1,3.1297194E1,8.376848E0,3.0301592E1,6.898071E0,9.1308E0,7.043806E0,2.4253387E1,2.5101028E1,5.2005625E0,1.8202662E1,6.0507255E0],"tree_param":{"num_deleted":"0","num_feature":"12","num_nodes":"15","size_leaf_vector":"1"}},{"base_weights":[-6.27107E-2,4.4100526E-1,-3.1947175E-1,-2.0655734E-2,8.32749E-2,3.0768696E-2,-4.5026714E-1,-2.9839853E-2,-5.10749E-2],"categories":[],"categories_nodes":[],"categories_segments":[],"categories_sizes":[],"default_left":[0,0,0,0,0,0,0,0,0],"id":28,"left_children":[1,3,5,-1,-1,-1,7,-1,-1],"loss_changes":[6.605576E0,4.5597196E0,2.901938E0,0E0,0E0,0E0,1.073575E-1,0E0,0E0],"parents":[2147483647,0,0,1,1,2,2,6,6],"right_children":[2,4,6,-1,-1,-1,8,-1,-1],"split_conditions":[5.012541E0,1.8626952E-6,4.5026535E-1,-2.0655734E-2,8.32749E-2,3.0768696E-2,-3.7627032E-1,-2.9839853E-2,-5.10749E-2],"split_indices":[10,0,9,0,0,0,8,0,0],"split_type":[0,0,0,0,0,0,0,0,0],"sum_hessian":[4.898419E1,1.6296335E1,3.2687855E1,6.3207293E0,9.975606E0,5.407358E0,2.7280499E1,9.460093E0,1.7820406E1],"tree_param":{"num_deleted":"0","num_feature":"12","num_nodes":"9","size_leaf_vector":"1"}},{"base_weights":[3.399201E-2,8.16228E-2,-4.603379E-2],"categories":[],"categories_nodes":[],"categories_segments":[],"categories_sizes":[],"default_left":[0,0,0],"id":29,"left_children":[1,-1,-1],"loss_changes":[6.3988175E0,0E0,0E0],"parents":[2147483647,0,0],"right_children":[2,-1,-1],"split_conditions":[-8.1853E-9,8.16228E-2,-4.603379E-2],"split_indices":[5,0,0],"split_type":[0,0,0],"sum_hessian":[1.4576281E1,5.3922744E0,9.184007E0],"tree_param":{"num_deleted":"0","num_feature":"12","num_nodes":"3","size_leaf_vector":"1"}},{"base_weights":[9.6331155E-3,-4.916788E-1,5.4952246E-1,-3.1490976E-1,-6.028334E-1,3.7477356E-1,7.410921E-1,-5.9426636E-2,-3.2120705E-2,-2.570709E-2,-6.411761E-2,5.3643364E-1,-1.606353E-2,8.947473E-2,5.1427543E-1,3.5316166E-2,-5.1113356E-2,7.8921095E-2,2.7258715E-2,7.213575E-2,1.1299207E-2],"categories":[],"categories_nodes":[],"categories_segments":[],"categories_sizes":[],"default_left":[0,0,0,0,0,0,0,0,0,0,0,0,0,0,0,0,0,0,0,0,0],"id":30,"left_children":[1,3,5,7,9,11,13,-1,15,-1,-1,17,-1,-1,19,-1,-1,-1,-1,-1,-1],"loss_changes":[3.9297935E1,1.2896767E0,2.0622768E0,2.4427655E0,4.335518E-1,3.4252586E0,6.6633034E-1,0E0,3.23371E0,0E0,0E0,1.7764759E0,0E0,0E0,1.1986346E0,0E0,0E0,0E0,0E0,0E0,0E0],"parents":[2147483647,0,0,1,1,2,2,3,3,4,4,5,5,6,6,8,8,11,11,14,14],"right_children":[2,4,6,8,10,12,14,-1,16,-1,-1,18,-1,-1,20,-1,-1,-1,-1,-1,-1],"split_conditions":[3.32646E1,2.2960155E-7,5.102808E1,5.99746E0,-7.0094943E-6,7.669227E-6,5.844183E1,-5.9426636E-2,1.8244087E1,-2.570709E-2,-6.411761E-2,9.137576E-1,-1.606353E-2,8.947473E-2,7.87298E-9,3.5316166E-2,-5.1113356E-2,7.8921095E-2,2.7258715E-2,7.213575E-2,1.1299207E-2],"split_indices":[10,1,10,10,2,0,10,0,10,0,0,9,0,0,3,0,0,0,0,0,0],"split_type":[0,0,0,0,0,0,0,0,0,0,0,0,0,0,0,0,0,0,0,0,0],"sum_hessian":[1.4319849E2,7.429836E1,6.890013E1,3.01631E1,4.413526E1,3.7578E1,3.132213E1,1.4619552E1,1.5543549E1,5.174829E0,3.8960434E1,2.8861664E1,8.716334E0,1.691702E1,1.4405109E1,8.760214E0,6.7833347E0,1.3723108E1,1.5138556E1,8.97562E0,5.4294896E0],"tree_param":{"num_deleted":"0","num_feature":"12","num_nodes":"21","size_leaf_vector":"1"}},{"base_weights":[2.1927622E-3,1.7630412E-1,-2.6373902E-1,-1.3134041E-1,4.8531738E-1,-4.1719386E-1,-1.0136855E-2,5.879878E-2,-5.451227E-1,3.1665266E-1,8.887365E-2,-6.542851E-2,-3.2001027E-1,2.6238102E-1,-3.9032888E-2,-2.4607291E-2,2.3330811E-2,-6.527477E-2,-2.9049722E-2,5.2368175E-2,-1.3218595E-3,-5.4635834E-2,-1.7775243E-2,-2.802953E-2,5.941837E-2],"categories":[],"categories_nodes":[],"categories_segments":[],"categories_sizes":[],"default_left":[0,0,0,0,0,0,0,0,0,0,0,0,0,0,0,0,0,0,0,0,0,0,0,0,0],"id":31,"left_children":[1,3,5,7,9,11,13,15,17,19,-1,-1,21,23,-1,-1,-1,-1,-1,-1,-1,-1,-1,-1,-1],"loss_changes":[6.9929667E0,8.739942E0,2.3214698E0,3.6921258E0,2.8311243E0,6.4792824E-1,2.5428324E0,1.8012286E0,2.1442318E-1,2.3159814E0,0E0,0E0,8.156607E-1,2.7446394E0,0E0,0E0,0E0,0E0,0E0,0E0,0E0,0E0,0E0,0E0,0E0],"parents":[2147483647,0,0,1,1,2,2,3,3,4,4,5,5,6,6,7,7,8,8,9,9,12,12,13,13],"right_children":[2,4,6,8,10,12,14,16,18,20,-1,-1,22,24,-1,-1,-1,-1,-1,-1,-1,-1,-1,-1,-1],"split_conditions":[3.5065937E1,-1.6384316E-9,2.419825E-8,1.5587098E-5,1.6641653E1,4.6774216E1,6.616778E-8,4.883855E0,5.1060734E1,5.102407E1,8.887365E-2,-6.542851E-2,-3.5740231E-6,-3.8765165E-6,-3.9032888E-2,-2.4607291E-2,2.3330811E-2,-6.527477E-2,-2.9049722E-2,5.2368175E-2,-1.3218595E-3,-5.4635834E-2,-1.7775243E-2,-2.802953E-2,5.941837E-2],"split_indices":[10,5,3,0,10,6,3,10,7,6,0,0,1,1,0,0,0,0,0,0,0,0,0,0,0],"split_type":[0,0,0,0,0,0,0,0,0,0,0,0,0,0,0,0,0,0,0,0,0,0,0,0,0],"sum_hessian":[1.4902608E2,9.0264786E1,5.876129E1,4.552069E1,4.4744095E1,3.6207214E1,2.255408E1,3.177671E1,1.37439785E1,3.281109E1,1.1933004E1,8.859912E0,2.7347301E1,1.3317849E1,9.23623E0,1.141841E1,2.0358301E1,8.5616045E0,5.182374E0,1.9798132E1,1.3012957E1,9.45798E0,1.788932E1,5.1120787E0,8.2057705E0],"tree_param":{"num_deleted":"0","num_feature":"12","num_nodes":"25","size_leaf_vector":"1"}},{"base_weights":[4.072777E-2,3.873414E-1,-4.941221E-1,1.8435471E-1,6.863375E-1,-1.555135E-2,-5.476573E-2,4.178121E-1,-2.4292852E-1,-3.2938942E-3,9.1632974E-1,7.930475E-3,6.996395E-2,-4.020183E-2,-2.3768523E-3,1.0991111E-1,4.4957083E-2],"categories":[],"categories_nodes":[],"categories_segments":[],"categories_sizes":[],"default_left":[0,0,0,0,0,0,0,0,0,0,0,0,0,0,0,0,0],"id":32,"left_children":[1,3,5,7,9,-1,-1,11,13,-1,15,-1,-1,-1,-1,-1,-1],"loss_changes":[1.601048E1,3.0499153E0,5.310488E-1,3.3475125E0,3.47046E0,0E0,0E0,1.9871249E0,4.1336513E-1,0E0,8.531914E-1,0E0,0E0,0E0,0E0,0E0,0E0],"parents":[2147483647,0,0,1,1,2,2,3,3,4,4,7,7,8,8,10,10],"right_children":[2,4,6,8,10,-1,-1,12,14,-1,16,-1,-1,-1,-1,-1,-1],"split_conditions":[2.1630081E1,5.1680897E1,6.8220836E-1,8.002552E-6,4.796111E1,-1.555135E-2,-5.476573E-2,-4.273407E-7,-2.8312168E-9,-3.2938942E-3,5.6055702E1,7.930475E-3,6.996395E-2,-4.020183E-2,-2.3768523E-3,1.0991111E-1,4.4957083E-2],"split_indices":[10,6,9,2,7,0,0,1,5,0,6,0,0,0,0,0,0],"split_type":[0,0,0,0,0,0,0,0,0,0,0,0,0,0,0,0,0],"sum_hessian":[8.433043E1,5.1336926E1,3.2993504E1,3.1540703E1,1.9796223E1,5.0373445E0,2.795616E1,2.041086E1,1.1129843E1,5.0038857E0,1.4792337E1,9.855116E0,1.0555744E1,5.965259E0,5.1645837E0,9.656221E0,5.1361165E0],"tree_param":{"num_deleted":"0","num_feature":"12","num_nodes":"17","size_leaf_vector":"1"}},{"base_weights":[1.0863718E-2,-4.0836653E-1,4.6527717E-1,-1.7660981E-2,-5.096155E-2,-1.8236559E-2,6.810297E-1,4.3307593E-1,1.1084121E-1,6.527694E-2,1.0444526E-2],"categories":[],"categories_nodes":[],"categories_segments":[],"categories_sizes":[],"default_left":[0,0,0,0,0,0,0,0,0,0,0],"id":33,"left_children":[1,3,5,-1,-1,-1,7,9,-1,-1,-1],"loss_changes":[9.781821E0,5.3701496E-1,3.5655437E0,0E0,0E0,0E0,1.5000753E0,9.040513E-1,0E0,0E0,0E0],"parents":[2147483647,0,0,1,1,2,2,6,6,7,7],"right_children":[2,4,6,-1,-1,-1,8,10,-1,-1,-1],"split_conditions":[4.8963107E-6,-3.6023206E-8,-1.299642E-6,-1.7660981E-2,-5.096155E-2,-1.8236559E-2,1.7212233E-8,1.51397035E-5,1.1084121E-1,6.527694E-2,1.0444526E-2],"split_indices":[2,3,0,0,0,0,3,0,0,0,0],"split_type":[0,0,0,0,0,0,0,0,0,0,0],"sum_hessian":[4.9349724E1,2.572127E1,2.3628454E1,8.6548395E0,1.706643E1,5.9431467E0,1.7685307E1,1.2466158E1,5.2191486E0,6.8802786E0,5.5858793E0],"tree_param":{"num_deleted":"0","num_feature":"12","num_nodes":"11","size_leaf_vector":"1"}},{"base_weights":[-2.4494937E-2,7.377627E-2,-4.62596E-2],"categories":[],"categories_nodes":[],"categories_segments":[],"categories_sizes":[],"default_left":[0,0,0],"id":34,"left_children":[1,-1,-1],"loss_changes":[5.4799747E0,0E0,0E0],"parents":[2147483647,0,0],"right_children":[2,-1,-1],"split_conditions":[-1.1236391E-1,7.377627E-2,-4.62596E-2],"split_indices":[11,0,0],"split_type":[0,0,0],"sum_hessian":[1.4387791E1,5.0015426E0,9.386248E0],"tree_param":{"num_deleted":"0","num_feature":"12","num_nodes":"3","size_leaf_vector":"1"}},{"base_weights":[-2.9652077E-3,-4.6901408E-1,5.165045E-1,-1.0925143E-1,-5.369465E-1,6.4100754E-1,3.7985474E-1,1.9208476E-2,-4.383148E-2,-5.724928E-1,-2.4092203E-2,7.5106966E-1,3.158758E-2,6.846431E-2,2.0994616E-1,-6.019745E-2,-2.4745187E-2,8.803525E-2,3.1923156E-2,2.225682E-3,5.245927E-2],"categories":[],"categories_nodes":[],"categories_segments":[],"categories_sizes":[],"default_left":[0,0,0,0,0,0,0,0,0,0,0,0,0,0,0,0,0,0,0,0,0],"id":35,"left_children":[1,3,5,7,9,11,13,-1,-1,15,-1,17,-1,-1,19,-1,-1,-1,-1,-1,-1],"loss_changes":[3.283171E1,1.6882458E0,8.476372E-1,1.3344539E0,4.9206161E-1,9.11582E-1,1.5667543E0,0E0,0E0,3.5629272E-1,0E0,1.0174866E0,0E0,0E0,1.3259251E0,0E0,0E0,0E0,0E0,0E0,0E0],"parents":[2147483647,0,0,1,1,2,2,3,3,4,4,5,5,6,6,9,9,11,11,14,14],"right_children":[2,4,6,8,10,12,14,-1,-1,16,-1,18,-1,-1,20,-1,-1,-1,-1,-1,-1],"split_conditions":[3.32646E1,-1.0436372E-5,-1.4351526E-10,1.2539319E-2,5.3841335E1,5.489037E1,3.7903845E-2,1.9208476E-2,-4.383148E-2,1.2409301E-1,-2.4092203E-2,4.967983E-6,3.158758E-2,6.846431E-2,7.005703E0,-6.019745E-2,-2.4745187E-2,8.803525E-2,3.1923156E-2,2.225682E-3,5.245927E-2],"split_indices":[10,2,5,11,7,6,8,0,0,11,0,0,0,0,8,0,0,0,0,0,0],"split_type":[0,0,0,0,0,0,0,0,0,0,0,0,0,0,0,0,0,0,0,0,0],"sum_hessian":[1.3361253E2,7.047876E1,6.3133785E1,1.1608681E1,5.8870075E1,3.1103859E1,3.2029926E1,6.276924E0,5.331757E0,5.172505E1,7.1450214E0,2.2258846E1,8.845011E0,1.0380148E1,2.1649778E1,4.6642506E1,5.0825477E0,1.633107E1,5.9277773E0,1.4231377E1,7.4184017E0],"tree_param":{"num_deleted":"0","num_feature":"12","num_nodes":"21","size_leaf_vector":"1"}},{"base_weights":[1.5517321E-2,9.76906E-2,-3.619715E-1,-1.3998222E-1,2.7169555E-1,-5.6656238E-2,-7.90338E-2,-4.6915933E-1,1.6334876E-1,3.8303795E-1,-1.07227944E-1,5.870735E-3,-1.8841468E-2,-2.9673213E-2,-6.127588E-2,3.4527224E-2,-2.421785E-2,1.6132561E-2,6.260193E-2,-4.014985E-2,2.769697E-2],"categories":[],"categories_nodes":[],"categories_segments":[],"categories_sizes":[],"default_left":[0,0,0,0,0,0,0,0,0,0,0,0,0,0,0,0,0,0,0,0,0],"id":36,"left_children":[1,3,5,7,9,-1,11,13,15,17,19,-1,-1,-1,-1,-1,-1,-1,-1,-1,-1],"loss_changes":[4.471381E0,4.927569E0,1.4474094E0,5.132265E0,2.9352074E0,0E0,1.9155115E-1,4.2579603E-1,2.0823615E0,2.766994E0,1.9608489E0,0E0,0E0,0E0,0E0,0E0,0E0,0E0,0E0,0E0,0E0],"parents":[2147483647,0,0,1,1,2,2,3,3,4,4,6,6,7,7,8,8,9,9,10,10],"right_children":[2,4,6,8,10,-1,12,14,16,18,20,-1,-1,-1,-1,-1,-1,-1,-1,-1,-1],"split_conditions":[5.0028545E1,-3.6722694E-9,5.776194E1,-3.4710024E-2,1.0071375E-5,-5.6656238E-2,1.0250949E0,-2.631829E-1,7.361729E-6,7.7414525E-1,-6.735006E-2,5.870735E-3,-1.8841468E-2,-2.9673213E-2,-6.127588E-2,3.4527224E-2,-2.421785E-2,1.6132561E-2,6.260193E-2,-4.014985E-2,2.769697E-2],"split_indices":[10,5,10,11,2,0,9,11,2,9,11,0,0,0,0,0,0,0,0,0,0],"split_type":[0,0,0,0,0,0,0,0,0,0,0,0,0,0,0,0,0,0,0,0,0],"sum_hessian":[1.4200749E2,1.1722968E2,2.4777817E1,4.963243E1,6.759725E1,1.3798072E1,1.0979745E1,2.3539976E1,2.6092455E1,5.2237106E1,1.5360145E1,5.0648975E0,5.9148474E0,1.2089676E1,1.14503E1,1.8114637E1,7.9778175E0,2.8184046E1,2.4053062E1,8.672523E0,6.6876216E0],"tree_param":{"num_deleted":"0","num_feature":"12","num_nodes":"21","size_leaf_vector":"1"}},{"base_weights":[3.6324184E-2,3.2868138E-1,-4.830993E-1,4.078225E-1,-3.7938807E-2,-1.4965922E-2,-5.4158308E-2,-1.3841067E-1,5.519388E-1,1.2551035E-2,-3.7142854E-2,5.6266487E-3,7.5264215E-2],"categories":[],"categories_nodes":[],"categories_segments":[],"categories_sizes":[],"default_left":[0,0,0,0,0,0,0,0,0,0,0,0,0],"id":37,"left_children":[1,3,5,7,-1,-1,-1,9,11,-1,-1,-1,-1],"loss_changes":[1.3333413E1,3.298811E0,5.3614235E-1,4.087098E0,0E0,0E0,0E0,7.4987537E-1,3.988E0,0E0,0E0,0E0,0E0],"parents":[2147483647,0,0,1,1,2,2,3,3,7,7,8,8],"right_children":[2,4,6,8,-1,-1,-1,10,12,-1,-1,-1,-1],"split_conditions":[2.3954178E1,2.8674134E-5,7.477994E-1,-1.0853553E-9,-3.7938807E-2,-1.4965922E-2,-5.4158308E-2,5.0185654E1,-1.9015812E-6,1.2551035E-2,-3.7142854E-2,5.6266487E-3,7.5264215E-2],"split_indices":[10,1,9,4,0,0,0,7,1,0,0,0,0],"split_type":[0,0,0,0,0,0,0,0,0,0,0,0,0],"sum_hessian":[8.575668E1,5.5106976E1,3.064971E1,4.994828E1,5.1586943E0,5.104697E0,2.5545012E1,1.043539E1,3.951289E1,5.109562E0,5.3258286E0,1.1757074E1,2.7755816E1],"tree_param":{"num_deleted":"0","num_feature":"12","num_nodes":"13","size_leaf_vector":"1"}},{"base_weights":[4.288643E-2,-1.2644318E-1,9.17034E-2,-2.484674E-1,4.705548E-2,1.752066E-2,-3.894559E-1,-4.8018467E-2,4.0995567E-3],"categories":[],"categories_nodes":[],"categories_segments":[],"categories_sizes":[],"default_left":[0,0,0,0,0,0,0,0,0],"id":38,"left_children":[1,3,-1,5,-1,-1,7,-1,-1],"loss_changes":[8.101217E0,3.473185E0,0E0,2.3923142E0,0E0,0E0,1.1719146E0,0E0,0E0],"parents":[2147483647,0,0,1,1,3,3,6,6],"right_children":[2,4,-1,6,-1,-1,8,-1,-1],"split_conditions":[2.5090283E-5,1.4204045E-5,9.17034E-2,-2.661608E0,4.705548E-2,1.752066E-2,9.9153085E-6,-4.8018467E-2,4.0995567E-3],"split_indices":[1,0,0,8,0,0,1,0,0],"split_type":[0,0,0,0,0,0,0,0,0],"sum_hessian":[5.2947548E1,4.5072067E1,7.875479E0,3.790768E1,7.164387E0,9.40443E0,2.850325E1,2.3445887E1,5.057363E0],"tree_param":{"num_deleted":"0","num_feature":"12","num_nodes":"9","size_leaf_vector":"1"}},{"base_weights":[1.2049109E-1,-4.5971755E-2,1.0682783E-1],"categories":[],"categories_nodes":[],"categories_segments":[],"categories_sizes":[],"default_left":[0,0,0],"id":39,"left_children":[1,-1,-1],"loss_changes":[8.7512E0,0E0,0E0],"parents":[2147483647,0,0],"right_children":[2,-1,-1],"split_conditions":[8.490575E-6,-4.5971755E-2,1.0682783E-1],"split_indices":[2,0,0],"split_type":[0,0,0],"sum_hessian":[1.4020693E1,9.0161915E0,5.004502E0],"tree_param":{"num_deleted":"0","num_feature":"12","num_nodes":"3","size_leaf_vector":"1"}},{"base_weights":[1.0777781E-2,-5.3539366E-1,1.9425832E-1,-6.2733896E-2,-3.1701007E-1,7.359153E-2,1.378066E-1,-4.4644423E-2,-1.174497E-2,-2.684652E-1,1.9101457E-1,-4.7007103E-2,-2.0471623E-3,3.645569E-2,5.700724E-3],"categories":[],"categories_nodes":[],"categories_segments":[],"categories_sizes":[],"default_left":[0,0,0,0,0,0,0,0,0,0,0,0,0,0,0],"id":40,"left_children":[1,3,5,-1,7,-1,9,-1,-1,11,13,-1,-1,-1,-1],"loss_changes":[1.3975804E1,5.054083E-1,3.08934E0,0E0,2.6820898E-1,0E0,2.1206946E0,0E0,0E0,5.6541425E-1,1.9613183E0,0E0,0E0,0E0,0E0],"parents":[2147483647,0,0,1,1,2,2,4,4,6,6,9,9,10,10],"right_children":[2,4,6,-1,8,-1,10,-1,-1,12,14,-1,-1,-1,-1],"split_conditions":[5.415448E-1,3.2190436E-1,-1.6196584E-5,-6.2733896E-2,1.3197218E-10,7.359153E-2,-4.9298134E0,-4.4644423E-2,-1.174497E-2,5.1298126E1,8.959474E-1,-4.7007103E-2,-2.0471623E-3,3.645569E-2,5.700724E-3],"split_indices":[9,9,1,0,4,0,8,0,0,6,9,0,0,0,0],"split_type":[0,0,0,0,0,0,0,0,0,0,0,0,0,0,0],"sum_hessian":[1.3742477E2,3.4074955E1,1.03349815E2,2.2661299E1,1.1413657E1,8.618521E0,9.473129E1,6.1728387E0,5.2408185E0,1.050145E1,8.422984E1,5.2985272E0,5.2029223E0,3.5951485E1,4.827836E1],"tree_param":{"num_deleted":"0","num_feature":"12","num_nodes":"15","size_leaf_vector":"1"}},{"base_weights":[8.784117E-3,8.7747015E-2,-4.01483E-1,1.942473E-1,-2.350991E-1,-6.116726E-2,-8.437737E-3,-4.0432803E-2,2.6844132E-1,6.489769E-2,-4.5954928E-1,-4.37732E-2,1.5338047E-2,3.9737593E-2,3.6489263E-3,3.7604723E-2,-3.9875105E-2,-5.6634057E-2,-2.1723134E-2],"categories":[],"categories_nodes":[],"categories_segments":[],"categories_sizes":[],"default_left":[0,0,0,0,0,0,0,0,0,0,0,0,0,0,0,0,0,0,0],"id":41,"left_children":[1,3,5,7,9,-1,-1,11,13,15,17,-1,-1,-1,-1,-1,-1,-1,-1],"loss_changes":[4.749139E0,4.269459E0,1.5257123E0,1.6287696E0,2.11209E0,0E0,0E0,1.8527585E0,2.1008277E0,2.1856709E0,3.3793354E-1,0E0,0E0,0E0,0E0,0E0,0E0,0E0,0E0],"parents":[2147483647,0,0,1,1,2,2,3,3,4,4,7,7,8,8,9,9,10,10],"right_children":[2,4,6,8,10,-1,-1,12,14,16,18,-1,-1,-1,-1,-1,-1,-1,-1],"split_conditions":[5.0764263E1,9.680141E-6,5.776194E1,-9.286867E-6,1.7494701E-6,-6.116726E-2,-8.437737E-3,-3.7807543E-2,3.2162506E1,9.063633E-11,-5.4639667E-2,-4.37732E-2,1.5338047E-2,3.9737593E-2,3.6489263E-3,3.7604723E-2,-3.9875105E-2,-5.6634057E-2,-2.1723134E-2],"split_indices":[10,2,10,2,0,0,0,11,10,4,11,0,0,0,0,0,0,0,0],"split_type":[0,0,0,0,0,0,0,0,0,0,0,0,0,0,0,0,0,0,0],"sum_hessian":[1.4450955E2,1.21844604E2,2.266495E1,9.192032E1,2.9924292E1,1.3071645E1,9.593305E0,2.2189297E1,6.973102E1,1.3111076E1,1.6813215E1,6.8627567E0,1.5326539E1,4.4359715E1,2.5371305E1,7.958892E0,5.1521845E0,1.0741969E1,6.0712457E0],"tree_param":{"num_deleted":"0","num_feature":"12","num_nodes":"19","size_leaf_vector":"1"}},{"base_weights":[-5.8353692E-2,1.8430011E-1,-5.4103225E-2,2.8038824E-1,-2.855036E-2,3.7705627E-1,-1.7120047E-2,-4.7363834E-3,5.1852137E-2],"categories":[],"categories_nodes":[],"categories_segments":[],"categories_sizes":[],"default_left":[0,0,0,0,0,0,0,0,0],"id":42,"left_children":[1,3,-1,5,-1,7,-1,-1,-1],"loss_changes":[1.0660899E1,2.82251E0,0E0,2.2883005E0,0E0,2.5625162E0,0E0,0E0,0E0],"parents":[2147483647,0,0,1,1,3,3,5,5],"right_children":[2,4,-1,6,-1,8,-1,-1,-1],"split_conditions":[2.3954178E1,5.275225E1,-5.4103225E-2,1.561499E-5,-2.855036E-2,-3.6685576E-6,-1.7120047E-2,-4.7363834E-3,5.1852137E-2],"split_indices":[10,7,0,1,0,1,0,0,0],"split_type":[0,0,0,0,0,0,0,0,0],"sum_hessian":[8.917115E1,5.9751064E1,2.9420084E1,4.9940086E1,9.810977E0,4.127065E1,8.669439E0,1.04835005E1,3.0787148E1],"tree_param":{"num_deleted":"0","num_feature":"12","num_nodes":"9","size_leaf_vector":"1"}},{"base_weights":[7.518252E-2,1.1762816E-1,-1.271718E-1,2.7354476E-1,-3.975591E-1,-2.5053367E-2,7.10545E-2,-1.2172046E-2,-4.6016788E-1,-2.8422972E-2,-5.011022E-2],"categories":[],"categories_nodes":[],"categories_segments":[],"categories_sizes":[],"default_left":[0,0,0,0,0,0,0,0,0,0,0],"id":43,"left_children":[1,-1,3,5,7,-1,-1,-1,9,-1,-1],"loss_changes":[1.0855918E1,0E0,4.6045375E0,4.142434E0,3.789053E-1,0E0,0E0,0E0,2.7999878E-3,0E0,0E0],"parents":[2147483647,0,0,2,2,3,3,4,4,8,8],"right_children":[2,-1,4,6,8,-1,-1,-1,10,-1,-1],"split_conditions":[9.852473E-2,1.1762816E-1,9.424583E0,5.128789E-6,4.761979E1,-2.5053367E-2,7.10545E-2,-1.2172046E-2,-6.4783026E-6,-2.8422972E-2,-5.011022E-2],"split_indices":[9,0,10,2,7,0,0,0,0,0,0],"split_type":[0,0,0,0,0,0,0,0,0,0,0],"sum_hessian":[4.7050915E1,6.5572186E0,4.04937E1,1.6310179E1,2.4183517E1,7.6102185E0,8.699961E0,5.018296E0,1.9165222E1,5.1167397E0,1.4048483E1],"tree_param":{"num_deleted":"0","num_feature":"12","num_nodes":"11","size_leaf_vector":"1"}},{"base_weights":[-4.626083E-2,7.317767E-2,-4.6511743E-2],"categories":[],"categories_nodes":[],"categories_segments":[],"categories_sizes":[],"default_left":[0,0,0],"id":44,"left_children":[1,-1,-1],"loss_changes":[5.577111E0,0E0,0E0],"parents":[2147483647,0,0],"right_children":[2,-1,-1],"split_conditions":[-1.086827E-8,7.317767E-2,-4.6511743E-2],"split_indices":[5,0,0],"split_type":[0,0,0],"sum_hessian":[1.5069259E1,5.012088E0,1.0057172E1],"tree_param":{"num_deleted":"0","num_feature":"12","num_nodes":"3","size_leaf_vector":"1"}},{"base_weights":[-6.179132E-3,-4.434785E-1,4.35541E-1,-5.764009E-1,-3.2192892E-1,-5.771359E-3,4.8501095E-1,-2.3254398E-2,-6.329071E-2,-2.4412203E-1,-5.8481563E-2,3.2082418E-1,6.410736E-1,5.450541E-3,-3.5712052E-2,4.6003506E-2,-1.1815767E-2,7.3599264E-2,4.0031675E-2],"categories":[],"categories_nodes":[],"categories_segments":[],"categories_sizes":[],"default_left":[0,0,0,0,0,0,0,0,0,0,0,0,0,0,0,0,0,0,0],"id":45,"left_children":[1,3,5,7,9,-1,11,-1,-1,13,-1,15,17,-1,-1,-1,-1,-1,-1],"loss_changes":[2.753643E1,9.717226E-1,1.7586756E0,4.930153E-1,6.6886616E-1,0E0,1.4487638E0,0E0,0E0,1.1105778E0,0E0,2.099528E0,4.389515E-1,0E0,0E0,0E0,0E0,0E0,0E0],"parents":[2147483647,0,0,1,1,2,2,3,3,4,4,6,6,9,9,11,11,12,12],"right_children":[2,4,6,8,10,-1,12,-1,-1,14,-1,16,18,-1,-1,-1,-1,-1,-1],"split_conditions":[3.32646E1,6.549669E0,4.6571682E1,-1.02842105E-5,1.3963123E-5,-5.771359E-3,5.0028545E1,-2.3254398E-2,-6.329071E-2,-8.329304E-9,-5.8481563E-2,4.6947365E1,5.0767267E-6,5.450541E-3,-3.5712052E-2,4.6003506E-2,-1.1815767E-2,7.3599264E-2,4.0031675E-2],"split_indices":[10,10,7,0,0,0,10,0,0,5,0,10,2,0,0,0,0,0,0],"split_type":[0,0,0,0,0,0,0,0,0,0,0,0,0,0,0,0,0,0,0],"sum_hessian":[1.4055478E2,7.062882E1,6.992595E1,3.194872E1,3.8680103E1,6.35864E0,6.3567307E1,5.231128E0,2.6717592E1,3.1334589E1,7.345514E0,3.2466476E1,3.1100834E1,8.743993E0,2.2590597E1,2.4613142E1,7.853333E0,2.083112E1,1.0269714E1],"tree_param":{"num_deleted":"0","num_feature":"12","num_nodes":"19","size_leaf_vector":"1"}},{"base_weights":[-4.989125E-3,-5.017917E-1,3.9755646E-2,-6.221484E-2,-2.732343E-2,1.9314605E-1,-1.8417007E-1,4.5171525E-2,5.436768E-1,-4.004241E-1,-1.625626E-2,-6.520958E-3,5.691879E-2,6.709205E-2,7.316788E-3,-1.9276118E-2,-6.3739054E-2,-4.9505588E-2,1.5168281E-2],"categories":[],"categories_nodes":[],"categories_segments":[],"categories_sizes":[],"default_left":[0,0,0,0,0,0,0,0,0,0,0,0,0,0,0,0,0,0,0],"id":46,"left_children":[1,3,5,-1,-1,7,9,11,13,15,17,-1,-1,-1,-1,-1,-1,-1,-1],"loss_changes":[3.2933233E0,1.6671586E-1,4.707411E0,0E0,0E0,4.187705E0,2.0199182E0,3.4031227E0,1.3886771E0,1.0753593E0,2.6848795E0,0E0,0E0,0E0,0E0,0E0,0E0,0E0,0E0],"parents":[2147483647,0,0,1,1,2,2,5,5,6,6,7,7,8,8,9,9,10,10],"right_children":[2,4,6,-1,-1,8,10,12,14,16,18,-1,-1,-1,-1,-1,-1,-1,-1],"split_conditions":[1.1749942E-1,8.411664E-1,3.5065937E1,-6.221484E-2,-2.732343E-2,1.6641653E1,9.137576E-1,1.3311492E-1,3.2162506E1,5.079732E1,-1.0648883E-1,-6.520958E-3,5.691879E-2,6.709205E-2,7.316788E-3,-1.9276118E-2,-6.3739054E-2,-4.9505588E-2,1.5168281E-2],"split_indices":[9,8,10,0,0,10,9,11,10,7,11,0,0,0,0,0,0,0,0],"split_type":[0,0,0,0,0,0,0,0,0,0,0,0,0,0,0,0,0,0,0],"sum_hessian":[1.4625482E2,1.1240185E1,1.3501465E2,6.2348757E0,5.0053086E0,8.020869E1,5.4805958E1,5.7193604E1,2.3015083E1,2.3349606E1,3.1456352E1,4.79655E1,9.228105E0,1.778058E1,5.2345014E0,1.3410723E1,9.938883E0,7.6624975E0,2.3793854E1],"tree_param":{"num_deleted":"0","num_feature":"12","num_nodes":"19","size_leaf_vector":"1"}},{"base_weights":[-3.738067E-2,3.6031553E-1,-1.6668998E-1,6.828366E-1,-2.8298065E-2,3.2126766E-2,-2.4710916E-1,4.0558364E-2,8.46334E-2,-3.6213735E-1,-5.9395775E-2,-2.043539E-3,-4.800297E-2,-2.8644085E-2,1.83835E-2],"categories":[],"categories_nodes":[],"categories_segments":[],"categories_sizes":[],"default_left":[0,0,0,0,0,0,0,0,0,0,0,0,0,0,0],"id":47,"left_children":[1,3,5,7,-1,-1,9,-1,-1,11,13,-1,-1,-1,-1],"loss_changes":[4.179196E0,4.3364897E0,2.4781523E0,2.729659E-1,0E0,0E0,1.1238551E0,0E0,0E0,1.30724E0,1.2317469E0,0E0,0E0,0E0,0E0],"parents":[2147483647,0,0,1,1,2,2,3,3,6,6,9,9,10,10],"right_children":[2,4,6,8,-1,-1,10,-1,-1,12,14,-1,-1,-1,-1],"split_conditions":[2.9647306E-1,1.3134667E-5,-4.7689037E0,-5.272202E-1,-2.8298065E-2,3.2126766E-2,3.6362238E-10,4.0558364E-2,8.46334E-2,-1.24832556E-1,-5.352902E-4,-2.043539E-3,-4.800297E-2,-2.8644085E-2,1.83835E-2],"split_indices":[9,1,8,11,0,0,4,0,0,11,11,0,0,0,0],"split_type":[0,0,0,0,0,0,0,0,0,0,0,0,0,0,0],"sum_hessian":[7.9098564E1,1.8969774E1,6.012879E1,1.2594146E1,6.3756285E0,8.083827E0,5.2044968E1,5.962994E0,6.631151E0,3.169407E1,2.0350895E1,8.430948E0,2.3263123E1,1.0433779E1,9.917117E0],"tree_param":{"num_deleted":"0","num_feature":"12","num_nodes":"15","size_leaf_vector":"1"}},{"base_weights":[-3.9554767E-2,-2.2780976E-1,7.9094514E-2,4.674488E-2,-3.4024456E-1,-4.5120773E-1,1.1015181E-2,-2.2666484E-2,-5.12187E-2],"categories":[],"categories_nodes":[],"categories_segments":[],"categories_sizes":[],"default_left":[0,0,0,0,0,0,0,0,0],"id":48,"left_children":[1,3,-1,-1,5,7,-1,-1,-1],"loss_changes":[8.034529E0,3.4211454E0,0E0,0E0,1.8738694E0,2.8757524E-1,0E0,0E0,0E0],"parents":[2147483647,0,0,1,1,4,4,5,5],"right_children":[2,4,-1,-1,6,8,-1,-1,-1],"split_conditions":[2.2003334E-5,2.1871723E-1,7.9094514E-2,4.674488E-2,1.5463515E-5,-7.710313E-6,1.1015181E-2,-2.2666484E-2,-5.12187E-2],"split_indices":[1,9,0,0,2,1,0,0,0],"split_type":[0,0,0,0,0,0,0,0,0],"sum_hessian":[4.923702E1,4.073014E1,8.506879E0,5.230292E0,3.5499847E1,2.8481197E1,7.018651E0,7.0901937E0,2.1391005E1],"tree_param":{"num_deleted":"0","num_feature":"12","num_nodes":"9","size_leaf_vector":"1"}},{"base_weights":[-3.0571025E-2,-4.6284143E-2,7.28299E-2],"categories":[],"categories_nodes":[],"categories_segments":[],"categories_sizes":[],"default_left":[0,0,0],"id":49,"left_children":[1,-1,-1],"loss_changes":[5.435672E0,0E0,0E0],"parents":[2147483647,0,0],"right_children":[2,-1,-1],"split_conditions":[9.520132E-6,-4.6284143E-2,7.28299E-2],"split_indices":[0,0,0],"split_type":[0,0,0],"sum_hessian":[1.4542709E1,9.513618E0,5.0290914E0],"tree_param":{"num_deleted":"0","num_feature":"12","num_nodes":"3","size_leaf_vector":"1"}},{"base_weights":[9.969426E-3,6.7138754E-2,-5.0753105E-1,-2.311793E-2,3.8156223E-1,-3.0327475E-2,-5.946377E-2,-1.00986555E-1,3.8082013E-1,5.329105E-1,-1.4756376E-2,1.2337619E-2,-2.0806244E-2,6.630983E-2,-6.911475E-3,7.5142145E-2,3.0861741E-2],"categories":[],"categories_nodes":[],"categories_segments":[],"categories_sizes":[],"default_left":[0,0,0,0,0,0,0,0,0,0,0,0,0,0,0,0,0],"id":50,"left_children":[1,3,5,7,9,-1,-1,11,13,15,-1,-1,-1,-1,-1,-1,-1],"loss_changes":[4.00415E0,3.4632323E0,5.9258223E-2,3.0429304E0,2.2573347E0,0E0,0E0,1.9685264E0,2.0331345E0,8.155303E-1,0E0,0E0,0E0,0E0,0E0,0E0,0E0],"parents":[2147483647,0,0,1,1,2,2,3,3,4,4,7,7,8,8,9,9],"right_children":[2,4,6,8,10,-1,-1,12,14,16,-1,-1,-1,-1,-1,-1,-1],"split_conditions":[1.9949532E-5,1.324023E-1,5.0137707E1,7.005703E0,1.454816E1,-3.0327475E-2,-5.946377E-2,-6.7448164E-10,2.0776597E-6,-1.4614711E-6,-1.4756376E-2,1.2337619E-2,-2.0806244E-2,6.630983E-2,-6.911475E-3,7.5142145E-2,3.0861741E-2],"split_indices":[2,11,6,8,8,0,0,4,0,1,0,0,0,0,0,0,0],"split_type":[0,0,0,0,0,0,0,0,0,0,0,0,0,0,0,0,0],"sum_hessian":[1.3319144E2,1.20724976E2,1.246647E1,9.4519264E1,2.6205708E1,5.066854E0,7.399616E0,7.987203E1,1.464723E1,2.037158E1,5.834128E0,2.5754597E1,5.411744E1,8.7094E0,5.9378304E0,9.128365E0,1.1243216E1],"tree_param":{"num_deleted":"0","num_feature":"12","num_nodes":"17","size_leaf_vector":"1"}},{"base_weights":[2.0482868E-2,6.896669E-2,-4.206486E-1,-2.3555564E-2,2.43169E-1,-1.0249483E-2,-6.0456682E-2,-1.2432425E-1,3.0574882E-1,5.80914E-1,-8.303721E-2,-9.326094E-4,-4.1230183E-2,2.1168652E-3,6.5296486E-2,1.0365959E-1,2.6943866E-2,1.985619E-2,-4.232328E-2],"categories":[],"categories_nodes":[],"categories_segments":[],"categories_sizes":[],"default_left":[0,0,0,0,0,0,0,0,0,0,0,0,0,0,0,0,0,0,0],"id":51,"left_children":[1,3,5,7,9,-1,-1,11,13,15,17,-1,-1,-1,-1,-1,-1,-1,-1],"loss_changes":[2.9288416E0,1.988463E0,7.3189497E-1,2.734378E0,4.759386E0,0E0,0E0,2.0801413E0,1.8959787E0,2.7203112E0,2.2516665E0,0E0,0E0,0E0,0E0,0E0,0E0,0E0,0E0],"parents":[2147483647,0,0,1,1,2,2,3,3,4,4,7,7,8,8,9,9,10,10],"right_children":[2,4,6,8,10,-1,-1,12,14,16,18,-1,-1,-1,-1,-1,-1,-1,-1],"split_conditions":[2.2218364E-5,5.439407E-10,-9.780558E-11,4.6200444E-8,1.322802E-9,-1.0249483E-2,-6.0456682E-2,5.4351017E1,1.8655063E-6,-2.498311E-8,5.0837204E1,-9.326094E-4,-4.1230183E-2,2.1168652E-3,6.5296486E-2,1.0365959E-1,2.6943866E-2,1.985619E-2,-4.232328E-2],"split_indices":[2,4,4,3,4,0,0,6,2,3,6,0,0,0,0,0,0,0,0],"split_type":[0,0,0,0,0,0,0,0,0,0,0,0,0,0,0,0,0,0,0],"sum_hessian":[1.3458379E2,1.2201684E2,1.256695E1,8.025606E1,4.176078E1,5.173967E0,7.3929834E0,6.1928204E1,1.8327856E1,2.0133884E1,2.1626896E1,4.4993374E1,1.693483E1,1.0655509E1,7.672347E0,7.2294025E0,1.2904483E1,1.2060264E1,9.566632E0],"tree_param":{"num_deleted":"0","num_feature":"12","num_nodes":"19","size_leaf_vector":"1"}},{"base_weights":[1.2068015E-2,3.938841E-1,-7.572398E-2,6.3583545E-2,-5.6525078E-3,5.8744986E-2,-1.3728769E-1,-3.946917E-1,7.245179E-3,-4.6787593E-3,-5.5688214E-2,1.4195867E-2,-3.1654753E-2],"categories":[],"categories_nodes":[],"categories_segments":[],"categories_sizes":[],"default_left":[0,0,0,0,0,0,0,0,0,0,0,0,0],"id":52,"left_children":[1,3,5,-1,-1,-1,7,9,11,-1,-1,-1,-1],"loss_changes":[2.8572602E0,1.7719674E0,2.9148686E0,0E0,0E0,0E0,2.3962662E0,1.2803156E0,1.8848608E0,0E0,0E0,0E0,0E0],"parents":[2147483647,0,0,1,1,2,2,6,6,7,7,8,8],"right_children":[2,4,6,-1,-1,-1,8,10,12,-1,-1,-1,-1],"split_conditions":[-4.253206E0,7.6331127E-1,2.1670233E-2,6.3583545E-2,-5.6525078E-3,5.8744986E-2,-4.303592E-10,-4.3759314E-6,5.2029873E1,-4.6787593E-3,-5.5688214E-2,1.4195867E-2,-3.1654753E-2],"split_indices":[8,9,9,0,0,0,4,0,7,0,0,0,0],"split_type":[0,0,0,0,0,0,0,0,0,0,0,0,0],"sum_hessian":[8.334966E1,1.4930197E1,6.8419464E1,9.444893E0,5.4853044E0,5.086351E0,6.333311E1,2.215163E1,4.118148E1,7.453051E0,1.469858E1,2.9478548E1,1.1702933E1],"tree_param":{"num_deleted":"0","num_feature":"12","num_nodes":"13","size_leaf_vector":"1"}},{"base_weights":[-2.8339367E-2,-3.8052666E-1,2.5093347E-1,-5.0556403E-2,4.5194216E-3,-3.328402E-2,4.23851E-1,7.798145E-2,1.8601009E-1,4.2596955E-2,-1.8407851E-2],"categories":[],"categories_nodes":[],"categories_segments":[],"categories_sizes":[],"default_left":[0,0,0,0,0,0,0,0,0,0,0],"id":53,"left_children":[1,3,5,-1,-1,-1,7,-1,9,-1,-1],"loss_changes":[5.0867496E0,1.2386932E0,3.0589654E0,0E0,0E0,0E0,1.7801924E0,0E0,1.4056344E0,0E0,0E0],"parents":[2147483647,0,0,1,1,2,2,6,6,8,8],"right_children":[2,4,6,-1,-1,-1,8,-1,10,-1,-1],"split_conditions":[4.8963107E-6,5.5340946E1,-1.299642E-6,-5.0556403E-2,4.5194216E-3,-3.328402E-2,1.0290293E0,7.798145E-2,5.09955E1,4.2596955E-2,-1.8407851E-2],"split_indices":[2,6,0,0,0,0,10,0,7,0,0],"split_type":[0,0,0,0,0,0,0,0,0,0,0],"sum_hessian":[4.9746735E1,2.18409E1,2.7905834E1,1.6737442E1,5.1034594E0,6.165641E0,2.1740194E1,7.7950487E0,1.3945145E1,8.368289E0,5.576856E0],"tree_param":{"num_deleted":"0","num_feature":"12","num_nodes":"11","size_leaf_vector":"1"}},{"base_weights":[4.923008E-2,6.9633454E-2,-4.5629606E-2],"categories":[],"categories_nodes":[],"categories_segments":[],"categories_sizes":[],"default_left":[0,0,0],"id":54,"left_children":[1,-1,-1],"loss_changes":[5.2550936E0,0E0,0E0],"parents":[2147483647,0,0],"right_children":[2,-1,-1],"split_conditions":[1.0588015E1,6.9633454E-2,-4.5629606E-2],"split_indices":[10,0,0],"split_type":[0,0,0],"sum_hessian":[1.4093038E1,6.015449E0,8.077589E0],"tree_param":{"num_deleted":"0","num_feature":"12","num_nodes":"3","size_leaf_vector":"1"}},{"base_weights":[-2.032502E-2,-4.3356997E-1,4.1681015E-1,-9.071945E-3,-4.7810072E-1,2.7030024E-1,5.6567997E-1,-7.8007737E-3,-5.3606856E-1,3.8356245E-1,-2.3173744E-2,7.2011106E-2,3.4826156E-1,-5.739599E-2,-2.72376E-2,7.782667E-2,2.0691792E-2,1.843792E-2,5.0710823E-2],"categories":[],"categories_nodes":[],"categories_segments":[],"categories_sizes":[],"default_left":[0,0,0,0,0,0,0,0,0,0,0,0,0,0,0,0,0,0,0],"id":55,"left_children":[1,3,5,-1,7,9,11,-1,13,15,-1,-1,17,-1,-1,-1,-1,-1,-1],"loss_changes":[2.5430162E1,1.0610838E0,1.3397007E0,0E0,1.4376535E0,2.158964E0,8.5818005E-1,0E0,3.9868355E-1,1.9362545E0,0E0,0E0,3.1399262E-1,0E0,0E0,0E0,0E0,0E0,0E0],"parents":[2147483647,0,0,1,1,2,2,4,4,5,5,6,6,8,8,9,9,12,12],"right_children":[2,4,6,-1,8,10,12,-1,14,16,-1,-1,18,-1,-1,-1,-1,-1,-1],"split_conditions":[3.32646E1,-1.4033201E-9,5.0028545E1,-9.071945E-3,-1.2334418E-5,7.478847E-6,5.7677425E1,-7.8007737E-3,8.043882E0,4.613704E1,-2.3173744E-2,7.2011106E-2,6.3336197E1,-5.739599E-2,-2.72376E-2,7.782667E-2,2.0691792E-2,1.843792E-2,5.0710823E-2],"split_indices":[10,4,10,0,2,0,10,0,8,6,0,0,10,0,0,0,0,0,0],"split_type":[0,0,0,0,0,0,0,0,0,0,0,0,0,0,0,0,0,0,0],"sum_hessian":[1.3877469E2,7.134087E1,6.743381E1,8.550005E0,6.2790867E1,3.540537E1,3.202844E1,8.243071E0,5.45478E1,2.9080626E1,6.3247447E0,1.7374989E1,1.4653451E1,4.6665558E1,7.882239E0,7.937903E0,2.1142723E1,8.275913E0,6.377538E0],"tree_param":{"num_deleted":"0","num_feature":"12","num_nodes":"19","size_leaf_vector":"1"}},{"base_weights":[4.8608568E-2,1.2030718E-1,-2.9315996E-1,1.6457646E-1,-3.5733685E-2,-5.19205E-2,-2.6906563E-2,-2.3312192E-2,2.031768E-1,-3.1925004E-2,2.9023428E-2,2.371031E-2,-2.5299102E-2],"categories":[],"categories_nodes":[],"categories_segments":[],"categories_sizes":[],"default_left":[0,0,0,0,0,0,0,0,0,0,0,0,0],"id":56,"left_children":[1,3,5,7,-1,-1,9,-1,11,-1,-1,-1,-1],"loss_changes":[3.537344E0,2.571732E0,1.4951081E0,1.7275183E0,0E0,0E0,1.2578547E0,0E0,1.6122098E0,0E0,0E0,0E0,0E0],"parents":[2147483647,0,0,1,1,2,2,3,3,6,6,8,8],"right_children":[2,4,6,8,-1,-1,10,-1,12,-1,-1,-1,-1],"split_conditions":[5.0764263E1,2.2817754E-5,5.776194E1,-7.777112E0,-3.5733685E-2,-5.19205E-2,-2.9057106E-2,-2.3312192E-2,1.9949532E-5,-3.1925004E-2,2.9023428E-2,2.371031E-2,-2.5299102E-2],"split_indices":[10,0,10,10,0,0,11,0,2,0,0,0,0],"split_type":[0,0,0,0,0,0,0,0,0,0,0,0,0],"sum_hessian":[1.4191658E2,1.1784269E2,2.4073885E1,1.0844699E2,9.395703E0,1.2506239E1,1.1567646E1,9.148708E0,9.929828E1,6.0156817E0,5.5519648E0,9.287144E1,6.4268446E0],"tree_param":{"num_deleted":"0","num_feature":"12","num_nodes":"13","size_leaf_vector":"1"}},{"base_weights":[-1.7472276E-2,2.3599932E-1,-4.9793297E-1,3.3866706E-1,-2.4478594E-2,-5.288002E-2,-3.0108029E-2,-3.6988106E-2,4.4160274E-1,7.887747E-2,2.0675229E-2],"categories":[],"categories_nodes":[],"categories_segments":[],"categories_sizes":[],"default_left":[0,0,0,0,0,0,0,0,0,0,0],"id":57,"left_children":[1,3,5,7,-1,-1,-1,-1,9,-1,-1],"loss_changes":[9.87464E0,2.7053292E0,1.0873318E-2,3.3869405E0,0E0,0E0,0E0,0E0,3.0206094E0,0E0,0E0],"parents":[2147483647,0,0,1,1,2,2,3,3,8,8],"right_children":[2,4,6,8,-1,-1,-1,-1,10,-1,-1],"split_conditions":[2.3954178E1,5.237112E1,1.05937E-9,-1.1819809E-5,-2.4478594E-2,-5.288002E-2,-3.0108029E-2,-3.6988106E-2,1.0372843E-6,7.887747E-2,2.0675229E-2],"split_indices":[10,7,4,0,0,0,0,0,0,0,0],"split_type":[0,0,0,0,0,0,0,0,0,0,0],"sum_hessian":[7.911889E1,5.212739E1,2.6991495E1,4.3198338E1,8.929054E0,2.187512E1,5.1163745E0,5.150694E0,3.804764E1,1.440079E1,2.3646852E1],"tree_param":{"num_deleted":"0","num_feature":"12","num_nodes":"11","size_leaf_vector":"1"}},{"base_weights":[-3.6684692E-2,-3.2011726E-1,2.3888372E-1,3.8072225E-3,-4.1147596E-1,-3.8049262E-2,4.1805553E-1,-4.9649354E-2,-1.9929556E-2,7.191923E-1,-2.0783614E-2,1.1715626E-1,2.1027846E-2],"categories":[],"categories_nodes":[],"categories_segments":[],"categories_sizes":[],"default_left":[0,0,0,0,0,0,0,0,0,0,0,0,0],"id":58,"left_children":[1,3,5,-1,7,-1,9,-1,-1,11,-1,-1,-1],"loss_changes":[4.07674E0,8.5585785E-1,3.1044688E0,0E0,2.7161336E-1,0E0,4.1193256E0,0E0,0E0,3.0790849E0,0E0,0E0,0E0],"parents":[2147483647,0,0,1,1,2,2,4,4,6,6,9,9],"right_children":[2,4,6,-1,8,-1,10,-1,-1,12,-1,-1,-1],"split_conditions":[6.384739E-6,4.796111E1,-6.05113E-1,3.8072225E-3,5.174005E1,-3.8049262E-2,1.6322575E1,-4.9649354E-2,-1.9929556E-2,-6.735006E-2,-2.0783614E-2,1.1715626E-1,2.1027846E-2],"split_indices":[2,7,11,0,7,0,10,0,0,11,0,0,0],"split_type":[0,0,0,0,0,0,0,0,0,0,0,0,0],"sum_hessian":[5.021651E1,2.4675333E1,2.554118E1,5.1331367E0,1.9542196E1,5.4786158E0,2.0062563E1,1.2995235E1,6.5469604E0,1.3444777E1,6.617787E0,6.4284687E0,7.016308E0],"tree_param":{"num_deleted":"0","num_feature":"12","num_nodes":"13","size_leaf_vector":"1"}},{"base_weights":[-4.0707763E-2,-4.6362128E-2,7.122992E-2],"categories":[],"categories_nodes":[],"categories_segments":[],"categories_sizes":[],"default_left":[0,0,0],"id":59,"left_children":[1,-1,-1],"loss_changes":[5.373391E0,0E0,0E0],"parents":[2147483647,0,0],"right_children":[2,-1,-1],"split_conditions":[1.4063966E-5,-4.6362128E-2,7.122992E-2],"split_indices":[2,0,0],"split_type":[0,0,0],"sum_hessian":[1.4836227E1,9.746551E0,5.089677E0],"tree_param":{"num_deleted":"0","num_feature":"12","num_nodes":"3","size_leaf_vector":"1"}},{"base_weights":[-6.0247425E-3,-3.69087E-1,3.8090077E-1,-1.6353694E-1,-5.084822E-1,5.7970595E-1,2.803144E-1,-4.566883E-1,7.9502665E-2,-5.8245625E-2,-1.1246565E-2,2.8379712E-2,7.13306E-2,4.7047353E-1,1.2671375E-1,-5.645263E-2,-2.34087E-2,3.7721906E-2,-3.6051344E-2,1.7920485E-2,6.6054896E-2,5.0147325E-2,-1.2579567E-2],"categories":[],"categories_nodes":[],"categories_segments":[],"categories_sizes":[],"default_left":[0,0,0,0,0,0,0,0,0,0,0,0,0,0,0,0,0,0,0,0,0,0,0],"id":60,"left_children":[1,3,5,7,9,11,13,15,17,-1,-1,-1,-1,19,21,-1,-1,-1,-1,-1,-1,-1,-1],"loss_changes":[1.8885506E1,1.9038811E0,1.1390629E0,2.1380074E0,1.1312056E0,6.250458E-1,1.2593393E0,1.9237661E-1,2.3603058E0,0E0,0E0,0E0,0E0,9.78281E-1,2.5564022E0,0E0,0E0,0E0,0E0,0E0,0E0,0E0,0E0],"parents":[2147483647,0,0,1,1,2,2,3,3,4,4,5,5,6,6,7,7,8,8,13,13,14,14],"right_children":[2,4,6,8,10,12,14,16,18,-1,-1,-1,-1,20,22,-1,-1,-1,-1,-1,-1,-1,-1],"split_conditions":[3.5065937E1,2.2960155E-7,-9.582777E-2,6.549669E0,2.3954178E1,-3.9719984E-1,9.137576E-1,4.9725403E1,1.8244087E1,-5.8245625E-2,-1.1246565E-2,2.8379712E-2,7.13306E-2,7.629335E-1,-1.4430016E-8,-5.645263E-2,-2.34087E-2,3.7721906E-2,-3.6051344E-2,1.7920485E-2,6.6054896E-2,5.0147325E-2,-1.2579567E-2],"split_indices":[10,1,11,10,10,11,9,6,10,0,0,0,0,9,3,0,0,0,0,0,0,0,0],"split_type":[0,0,0,0,0,0,0,0,0,0,0,0,0,0,0,0,0,0,0,0,0,0,0],"sum_hessian":[1.3243663E2,6.8349045E1,6.4087585E1,2.8498613E1,3.9850433E1,1.9931154E1,4.4156433E1,1.2519127E1,1.5979486E1,3.31815E1,6.6689343E0,7.1714454E0,1.2759709E1,1.8808432E1,2.5348E1,7.398786E0,5.120341E0,9.61599E0,6.3634963E0,8.194347E0,1.0614085E1,9.80703E0,1.554097E1],"tree_param":{"num_deleted":"0","num_feature":"12","num_nodes":"23","size_leaf_vector":"1"}},{"base_weights":[1.7349396E-2,1.1237957E-1,-2.5450465E-1,-4.533205E-2,3.0725062E-1,-1.293837E-1,-4.374531E-1,-5.0655153E-2,3.359679E-2,-1.5391371E-2,3.738162E-1,-4.9146067E-2,8.805676E-2,-6.037668E-2,-9.977983E-3,-4.509383E-2,1.4469904E-2,7.8575E-2,2.1732716E-2,3.8977895E-2,-3.2080922E-2],"categories":[],"categories_nodes":[],"categories_segments":[],"categories_sizes":[],"default_left":[0,0,0,0,0,0,0,0,0,0,0,0,0,0,0,0,0,0,0,0,0],"id":61,"left_children":[1,3,5,7,9,11,13,-1,15,-1,17,-1,19,-1,-1,-1,-1,-1,-1,-1,-1],"loss_changes":[3.7216663E0,3.2906709E0,7.979927E-1,2.1939082E0,1.5254765E0,1.9005789E0,7.677126E-1,0E0,2.864488E0,0E0,2.5417938E0,0E0,2.047957E0,0E0,0E0,0E0,0E0,0E0,0E0,0E0,0E0],"parents":[2147483647,0,0,1,1,2,2,3,3,4,4,5,5,6,6,8,8,10,10,12,12],"right_children":[2,4,6,8,10,12,14,-1,16,-1,18,-1,20,-1,-1,-1,-1,-1,-1,-1,-1],"split_conditions":[4.4647614E1,-1.6276129E-2,5.1197655E1,-1.0436372E-5,4.743635E1,-3.8765165E-6,1.0346555E0,-5.0655153E-2,1.1749942E-1,-1.5391371E-2,4.9504272E1,-4.9146067E-2,4.6388154E-6,-6.037668E-2,-9.977983E-3,-4.509383E-2,1.4469904E-2,7.8575E-2,2.1732716E-2,3.8977895E-2,-3.2080922E-2],"split_indices":[10,11,7,2,7,1,9,0,9,0,7,0,1,0,0,0,0,0,0,0,0],"split_type":[0,0,0,0,0,0,0,0,0,0,0,0,0,0,0,0,0,0,0,0,0],"sum_hessian":[1.4195181E2,1.05618195E2,3.633362E1,5.8798885E1,4.681931E1,2.2590727E1,1.3742892E1,7.8002753E0,5.099861E1,5.740067E0,4.1079243E1,8.003413E0,1.4587314E1,8.679815E0,5.063077E0,8.942058E0,4.2056553E1,1.0202246E1,3.0876997E1,8.420268E0,6.1670446E0],"tree_param":{"num_deleted":"0","num_feature":"12","num_nodes":"21","size_leaf_vector":"1"}},{"base_weights":[5.9104223E-2,3.5624728E-1,-1.22858636E-1,6.754463E-1,3.94894E-3,-4.0686092E-1,7.186777E-2,2.2119617E-2,1.0101E-1,-2.7507791E-2,3.4115415E-2,-1.9606018E-2,-5.240043E-2,-4.189876E-2,2.857486E-1,5.270284E-2,-1.4788792E-3],"categories":[],"categories_nodes":[],"categories_segments":[],"categories_sizes":[],"default_left":[0,0,0,0,0,0,0,0,0,0,0,0,0,0,0,0,0],"id":62,"left_children":[1,3,5,7,9,11,13,-1,-1,-1,-1,-1,-1,-1,15,-1,-1],"loss_changes":[4.465932E0,3.51926E0,2.8755836E0,2.2735195E0,1.5892532E0,4.179411E-1,3.4144685E0,0E0,0E0,0E0,0E0,0E0,0E0,0E0,1.6359544E0,0E0,0E0],"parents":[2147483647,0,0,1,1,2,2,3,3,4,4,5,5,6,6,14,14],"right_children":[2,4,6,8,10,12,14,-1,-1,-1,-1,-1,-1,-1,16,-1,-1],"split_conditions":[4.2826793E-1,5.654906E-6,-1.1067019E-6,1.8626952E-6,5.1680897E1,-5.899218E-2,-6.2092725E-10,2.2119617E-2,1.0101E-1,-2.7507791E-2,3.4115415E-2,-1.9606018E-2,-5.240043E-2,-4.189876E-2,6.560506E-10,5.270284E-2,-1.4788792E-3],"split_indices":[9,1,1,0,6,11,4,0,0,0,0,0,0,0,4,0,0],"split_type":[0,0,0,0,0,0,0,0,0,0,0,0,0,0,0,0,0],"sum_hessian":[8.078742E1,3.0319029E1,5.046839E1,1.5425519E1,1.4893509E1,2.0085268E1,3.0383123E1,7.248105E0,8.177415E0,8.250619E0,6.64289E0,8.129616E0,1.1955653E1,8.929953E0,2.145317E1,1.1481712E1,9.971458E0],"tree_param":{"num_deleted":"0","num_feature":"12","num_nodes":"17","size_leaf_vector":"1"}},{"base_weights":[1.3465181E-2,-2.1319038E-1,4.039973E-1,2.638938E-2,-3.5423523E-1,9.008723E-2,6.314842E-2,4.2798594E-3,-4.548298E-1,4.8192866E-2,-2.980191E-2,-2.7733488E-2,-4.9499463E-2],"categories":[],"categories_nodes":[],"categories_segments":[],"categories_sizes":[],"default_left":[0,0,0,0,0,0,0,0,0,0,0,0,0],"id":63,"left_children":[1,3,5,-1,7,-1,9,-1,11,-1,-1,-1,-1],"loss_changes":[4.500299E0,2.2608585E0,3.1031988E0,0E0,1.0294056E0,0E0,1.9801822E0,0E0,7.162571E-3,0E0,0E0,0E0,0E0],"parents":[2147483647,0,0,1,1,2,2,4,4,6,6,8,8],"right_children":[2,4,6,-1,8,-1,10,-1,12,-1,-1,-1,-1],"split_conditions":[1.441224E-5,3.2190436E-1,5.0024334E1,2.638938E-2,4.4133844E0,9.008723E-2,2.513036E-5,4.2798594E-3,-4.745961E-8,4.8192866E-2,-2.980191E-2,-2.7733488E-2,-4.9499463E-2],"split_indices":[2,9,7,0,10,0,2,0,3,0,0,0,0],"split_type":[0,0,0,0,0,0,0,0,0,0,0,0,0],"sum_hessian":[4.886846E1,3.1209381E1,1.765908E1,6.9226227E0,2.428676E1,6.516533E0,1.1142548E1,5.0256624E0,1.9261097E1,5.004906E0,6.137642E0,5.0129523E0,1.4248145E1],"tree_param":{"num_deleted":"0","num_feature":"12","num_nodes":"13","size_leaf_vector":"1"}},{"base_weights":[3.4739107E-2,6.1279226E-2,-4.5524392E-2],"categories":[],"categories_nodes":[],"categories_segments":[],"categories_sizes":[],"default_left":[0,0,0],"id":64,"left_children":[1,-1,-1],"loss_changes":[4.65908E0,0E0,0E0],"parents":[2147483647,0,0],"right_children":[2,-1,-1],"split_conditions":[1.0588015E1,6.1279226E-2,-4.5524392E-2],"split_indices":[10,0,0],"split_type":[0,0,0],"sum_hessian":[1.4464511E1,6.520899E0,7.9436126E0],"tree_param":{"num_deleted":"0","num_feature":"12","num_nodes":"3","size_leaf_vector":"1"}},{"base_weights":[-1.47188455E-2,-3.7693152E-1,3.1742322E-1,-1.3682452E-1,-5.4961976E-2,1.05454944E-1,5.403975E-1,-4.3480194E-1,1.1483648E-1,6.0837872E-2,-3.7617438E-2,6.290754E-1,2.9149154E-2,-5.4653194E-2,-2.3948284E-2,-2.8181601E-2,3.754058E-2,-2.8801665E-2,2.9685268E-2,4.5110527E-2,7.3972896E-2],"categories":[],"categories_nodes":[],"categories_segments":[],"categories_sizes":[],"default_left":[0,0,0,0,0,0,0,0,0,0,0,0,0,0,0,0,0,0,0,0,0],"id":65,"left_children":[1,3,5,7,-1,9,11,13,15,-1,17,19,-1,-1,-1,-1,-1,-1,-1,-1,-1],"loss_changes":[1.5371508E1,2.4582167E0,3.0943403E0,2.0665317E0,0E0,2.5717974E0,5.2850723E-1,1.4237809E-1,1.6943731E0,0E0,2.4740925E0,1.1759567E-1,0E0,0E0,0E0,0E0,0E0,0E0,0E0,0E0,0E0],"parents":[2147483647,0,0,1,1,2,2,3,3,5,5,6,6,7,7,8,8,10,10,11,11],"right_children":[2,4,6,8,-1,10,12,14,16,-1,18,20,-1,-1,-1,-1,-1,-1,-1,-1,-1],"split_conditions":[3.2162506E1,2.2960155E-7,4.9142975E1,6.549669E0,-5.4961976E-2,4.418525E1,9.466629E-10,4.945643E1,-7.641905E-6,6.0837872E-2,2.3070895E-10,7.702356E-10,2.9149154E-2,-5.4653194E-2,-2.3948284E-2,-2.8181601E-2,3.754058E-2,-2.8801665E-2,2.9685268E-2,4.5110527E-2,7.3972896E-2],"split_indices":[10,1,10,10,0,6,4,6,1,0,4,3,0,0,0,0,0,0,0,0,0],"split_type":[0,0,0,0,0,0,0,0,0,0,0,0,0,0,0,0,0,0,0,0,0],"sum_hessian":[1.257755E2,6.0099747E1,6.567575E1,2.5891846E1,3.42079E1,3.4423935E1,3.1251816E1,1.1521805E1,1.437004E1,6.9037685E0,2.7520166E1,2.1916317E1,9.335498E0,6.1853814E0,5.3364234E0,5.6649747E0,8.705066E0,1.5817425E1,1.1702741E1,1.0348689E1,1.1567629E1],"tree_param":{"num_deleted":"0","num_feature":"12","num_nodes":"21","size_leaf_vector":"1"}},{"base_weights":[3.3846546E-2,1.266542E-1,-2.4727212E-1,2.1214834E-1,-3.6455154E-1,-3.8756493E-1,1.5113502E-2,2.7572472E-2,3.422631E-1,1.7809237E-3,-5.4748476E-2,-4.7918493E-1,-1.2669611E-2,4.9729165E-2,-7.810714E-3,1.3901832E-2,5.1544804E-2,-2.2216419E-2,-5.6029893E-2],"categories":[],"categories_nodes":[],"categories_segments":[],"categories_sizes":[],"default_left":[0,0,0,0,0,0,0,0,0,0,0,0,0,0,0,0,0,0,0],"id":66,"left_children":[1,3,5,7,9,11,-1,13,15,-1,-1,17,-1,-1,-1,-1,-1,-1,-1],"loss_changes":[3.6482453E0,4.4820423E0,2.000716E0,2.1512609E0,1.1230814E0,5.601964E-1,0E0,1.939397E0,1.7826924E0,0E0,0E0,2.688532E-1,0E0,0E0,0E0,0E0,0E0,0E0,0E0],"parents":[2147483647,0,0,1,1,2,2,3,3,4,4,5,5,7,7,8,8,11,11],"right_children":[2,4,6,8,10,12,-1,14,16,-1,-1,18,-1,-1,-1,-1,-1,-1,-1],"split_conditions":[4.4647614E1,1.8664761E-5,4.5128825E-8,-4.0587943E-2,-2.2953937E-10,5.7677425E1,1.5113502E-2,-8.754919E-6,-1.4963625E-6,1.7809237E-3,-5.4748476E-2,-9.3015864E-2,-1.2669611E-2,4.9729165E-2,-7.810714E-3,1.3901832E-2,5.1544804E-2,-2.2216419E-2,-5.6029893E-2],"split_indices":[10,0,3,11,4,10,0,0,0,0,0,11,0,0,0,0,0,0,0],"split_type":[0,0,0,0,0,0,0,0,0,0,0,0,0,0,0,0,0,0,0],"sum_hessian":[1.3763292E2,1.0388583E2,3.374708E1,8.896893E1,1.4916899E1,2.4978508E1,8.768576E0,3.7286964E1,5.168197E1,5.1193194E0,9.79758E0,1.786666E1,7.1118484E0,6.1676536E0,3.1119312E1,2.4606827E1,2.7075142E1,5.182888E0,1.2683771E1],"tree_param":{"num_deleted":"0","num_feature":"12","num_nodes":"19","size_leaf_vector":"1"}},{"base_weights":[2.6034575E-2,2.4345212E-1,-4.507279E-1,3.0335892E-2,4.299063E-1,-1.4552486E-2,-5.1979195E-2,3.525848E-1,-4.2582235E-1,6.091867E-1,-1.6296467E-2,-1.591291E-2,9.4080545E-2,-5.598268E-2,-2.1307692E-2,8.6555056E-2,1.5160235E-2],"categories":[],"categories_nodes":[],"categories_segments":[],"categories_sizes":[],"default_left":[0,0,0,0,0,0,0,0,0,0,0,0,0,0,0,0,0],"id":67,"left_children":[1,3,5,7,9,-1,-1,11,13,15,-1,-1,-1,-1,-1,-1,-1],"loss_changes":[8.340657E0,2.179818E0,4.559722E-1,4.0936623E0,3.2197223E0,0E0,0E0,5.046467E0,2.1024942E-1,2.5378304E0,0E0,0E0,0E0,0E0,0E0,0E0,0E0],"parents":[2147483647,0,0,1,1,2,2,3,3,4,4,7,7,8,8,9,9],"right_children":[2,4,6,8,10,-1,-1,12,14,16,-1,-1,-1,-1,-1,-1,-1],"split_conditions":[2.2994326E1,-1.4125013E-8,7.2816396E-1,1.1351987E-10,1.901383E-5,-1.4552486E-2,-5.1979195E-2,-4.303592E-10,5.816205E-1,1.4451543E-9,-1.6296467E-2,-1.591291E-2,9.4080545E-2,-5.598268E-2,-2.1307692E-2,8.6555056E-2,1.5160235E-2],"split_indices":[10,3,9,4,2,0,0,4,9,5,0,0,0,0,0,0,0],"split_type":[0,0,0,0,0,0,0,0,0,0,0,0,0,0,0,0,0],"sum_hessian":[7.840578E1,5.4185143E1,2.4220634E1,2.5827332E1,2.8357813E1,5.0428286E0,1.9177807E1,1.526826E1,1.0559071E1,2.1752481E1,6.6053314E0,8.555233E0,6.713027E0,5.477471E0,5.0815997E0,1.3370197E1,8.382283E0],"tree_param":{"num_deleted":"0","num_feature":"12","num_nodes":"17","size_leaf_vector":"1"}},{"base_weights":[-9.999549E-3,2.426609E-1,-4.033866E-1,-2.3751E-1,5.049246E-1,-1.2651748E-2,-4.917511E-2,-4.5850333E-2,4.5976765E-3,1.00752845E-1,1.7672789E-1,-2.1104662E-2,4.481329E-2],"categories":[],"categories_nodes":[],"categories_segments":[],"categories_sizes":[],"default_left":[0,0,0,0,0,0,0,0,0,0,0,0,0],"id":68,"left_children":[1,3,5,7,9,-1,-1,-1,-1,-1,11,-1,-1],"loss_changes":[5.0566964E0,4.0242457E0,4.2433357E-1,7.498126E-1,3.182281E0,0E0,0E0,0E0,0E0,0E0,1.5192364E0,0E0,0E0],"parents":[2147483647,0,0,1,1,2,2,3,3,4,4,10,10],"right_children":[2,4,6,8,10,-1,-1,-1,-1,-1,12,-1,-1],"split_conditions":[1.6322575E1,5.9536487E-6,3.32646E1,4.9999752E1,1.7373262E-5,-1.2651748E-2,-4.917511E-2,-4.5850333E-2,4.5976765E-3,1.00752845E-1,2.5090283E-5,-2.1104662E-2,4.481329E-2],"split_indices":[10,2,10,6,2,0,0,0,0,0,1,0,0],"split_type":[0,0,0,0,0,0,0,0,0,0,0,0,0],"sum_hessian":[4.8890766E1,3.0003553E1,1.8887213E1,1.0632043E1,1.937151E1,5.157907E0,1.3729306E1,5.6276293E0,5.004414E0,6.8347745E0,1.2536736E1,5.2533355E0,7.2834E0],"tree_param":{"num_deleted":"0","num_feature":"12","num_nodes":"13","size_leaf_vector":"1"}},{"base_weights":[-9.674657E-2,-4.6349462E-2,5.599907E-2],"categories":[],"categories_nodes":[],"categories_segments":[],"categories_sizes":[],"default_left":[0,0,0],"id":69,"left_children":[1,-1,-1],"loss_changes":[3.999634E0,0E0,0E0],"parents":[2147483647,0,0],"right_children":[2,-1,-1],"split_conditions":[9.087544E-6,-4.6349462E-2,5.599907E-2],"split_indices":[1,0,0],"split_type":[0,0,0],"sum_hessian":[1.4528215E1,9.511092E0,5.017123E0],"tree_param":{"num_deleted":"0","num_feature":"12","num_nodes":"3","size_leaf_vector":"1"}},{"base_weights":[-1.9254299E-2,-4.291838E-1,3.5713285E-1,-2.3141713E-1,-5.7193395E-2,1.9915038E-1,5.775974E-1,-5.1125385E-2,-2.8770366E-3,2.9201517E-1,-3.2031193E-2,2.24599E-2,6.447252E-1,-3.6208805E-2,3.150329E-2,-4.445491E-3,3.941554E-2,7.204461E-2,3.2535933E-2],"categories":[],"categories_nodes":[],"categories_segments":[],"categories_sizes":[],"default_left":[0,0,0,0,0,0,0,0,0,0,0,0,0,0,0,0,0,0,0],"id":70,"left_children":[1,3,5,7,-1,9,11,-1,13,15,-1,-1,17,-1,-1,-1,-1,-1,-1],"loss_changes":[2.0394522E1,1.6532679E0,2.2860422E0,1.8017105E0,0E0,2.104457E0,5.246496E-1,0E0,2.0012443E0,1.2508562E0,0E0,0E0,3.267107E-1,0E0,0E0,0E0,0E0,0E0,0E0],"parents":[2147483647,0,0,1,1,2,2,3,3,5,5,6,6,8,8,9,9,12,12],"right_children":[2,4,6,8,-1,10,12,-1,14,16,-1,-1,18,-1,-1,-1,-1,-1,-1],"split_conditions":[3.2162506E1,2.2960155E-7,5.102808E1,6.549669E0,-5.7193395E-2,1.2111298E-5,4.6749035E1,-5.1125385E-2,5.031481E1,-6.4783026E-6,-3.2031193E-2,2.24599E-2,6.6758275E0,-3.6208805E-2,3.150329E-2,-4.445491E-3,3.941554E-2,7.204461E-2,3.2535933E-2],"split_indices":[10,1,10,10,0,1,7,0,7,0,0,0,8,0,0,0,0,0,0],"split_type":[0,0,0,0,0,0,0,0,0,0,0,0,0,0,0,0,0,0,0],"sum_hessian":[1.3018774E2,6.2249985E1,6.793777E1,2.7195017E1,3.505497E1,4.0685966E1,2.7251802E1,1.1669373E1,1.5525644E1,3.4887028E1,5.798937E0,5.048675E0,2.2203127E1,7.224084E0,8.30156E0,8.255743E0,2.6631285E1,1.6932585E1,5.270541E0],"tree_param":{"num_deleted":"0","num_feature":"12","num_nodes":"19","size_leaf_vector":"1"}},{"base_weights":[2.192364E-2,-2.2478062E-1,1.2798801E-1,-3.533914E-1,1.5776959E-1,2.0613348E-1,-1.8527295E-1,2.280832E-3,-4.6465874E-1,6.740755E-2,-4.1004788E-2,-9.557633E-2,3.3200023E-1,-3.3763906E-1,1.6460484E-2,-1.8768419E-3,-5.826978E-2,2.9861588E-2,-5.1825088E-2,-6.636427E-3,4.415793E-2,6.986485E-3,-5.714018E-2],"categories":[],"categories_nodes":[],"categories_segments":[],"categories_sizes":[],"default_left":[0,0,0,0,0,0,0,0,0,0,0,0,0,0,0,0,0,0,0,0,0,0,0],"id":71,"left_children":[1,3,5,7,9,11,13,-1,15,-1,-1,17,19,21,-1,-1,-1,-1,-1,-1,-1,-1,-1],"loss_changes":[3.6683395E0,2.1311498E0,2.4350162E0,1.344971E0,3.5905898E0,3.0255153E0,1.1257464E0,0E0,1.2863727E0,0E0,0E0,4.150748E0,2.467372E0,1.403301E0,0E0,0E0,0E0,0E0,0E0,0E0,0E0,0E0,0E0],"parents":[2147483647,0,0,1,1,2,2,3,3,4,4,5,5,6,6,8,8,11,11,12,12,13,13],"right_children":[2,4,6,8,10,12,14,-1,16,-1,-1,18,20,22,-1,-1,-1,-1,-1,-1,-1,-1,-1],"split_conditions":[-7.49065E-9,5.288291E1,5.0764263E1,4.818565E1,7.361729E-6,5.303682E0,5.0767267E-6,2.280832E-3,-1.4678179E-9,6.740755E-2,-4.1004788E-2,-8.033325E-9,-4.6524196E-8,-6.3326606E-6,1.6460484E-2,-1.8768419E-3,-5.826978E-2,2.9861588E-2,-5.1825088E-2,-6.636427E-3,4.415793E-2,6.986485E-3,-5.714018E-2],"split_indices":[5,7,10,7,2,10,2,0,4,0,0,3,3,2,0,0,0,0,0,0,0,0,0],"split_type":[0,0,0,0,0,0,0,0,0,0,0,0,0,0,0,0,0,0,0,0,0,0,0],"sum_hessian":[1.3809258E2,4.118276E1,9.690982E1,3.0878006E1,1.0304754E1,7.783518E1,1.9074638E1,7.229559E0,2.3648445E1,5.299177E0,5.0055776E0,2.298337E1,5.4851807E1,1.3312319E1,5.7623196E0,5.1925793E0,1.8455868E1,1.2044247E1,1.0939123E1,1.1918302E1,4.2933506E1,5.1083612E0,8.203958E0],"tree_param":{"num_deleted":"0","num_feature":"12","num_nodes":"23","size_leaf_vector":"1"}},{"base_weights":[3.454446E-2,-2.7007815E-1,1.919917E-1,2.5558745E-2,-4.6909675E-1,7.241291E-2,1.1369364E-1,-1.6067298E-2,-5.5993047E-2,2.1799478E-1,-2.6407504E-2,-2.70112E-2,3.1766098E-2],"categories":[],"categories_nodes":[],"categories_segments":[],"categories_sizes":[],"default_left":[0,0,0,0,0,0,0,0,0,0,0,0,0],"id":72,"left_children":[1,3,5,-1,7,-1,9,-1,-1,11,-1,-1,-1],"loss_changes":[3.9364703E0,3.0505965E0,2.16677E0,0E0,4.8919296E-1,0E0,1.9584061E0,0E0,0E0,1.9515696E0,0E0,0E0,0E0],"parents":[2147483647,0,0,1,1,2,2,4,4,6,6,9,9],"right_children":[2,4,6,-1,8,-1,10,-1,-1,12,-1,-1,-1],"split_conditions":[-5.266239E-10,-1.3116322E-1,-5.2462163E0,2.5558745E-2,-5.30311E-6,7.241291E-2,5.275225E1,-1.6067298E-2,-5.5993047E-2,-1.1786897E-5,-2.6407504E-2,-2.70112E-2,3.1766098E-2],"split_indices":[4,11,8,0,2,0,7,0,0,0,0,0,0],"split_type":[0,0,0,0,0,0,0,0,0,0,0,0,0],"sum_hessian":[7.999368E1,2.7013563E1,5.2980118E1,7.3406215E0,1.9672941E1,5.7375584E0,4.7242558E1,5.1056604E0,1.4567281E1,3.7352543E1,9.890017E0,6.0437293E0,3.1308813E1],"tree_param":{"num_deleted":"0","num_feature":"12","num_nodes":"13","size_leaf_vector":"1"}},{"base_weights":[-3.9542047E-3,3.8587904E-1,-2.2876523E-1,-2.152983E-2,6.8521684E-1,2.4294924E-2,-3.8118944E-1,1.0308994E-1,2.4944035E-2,-1.149677E-2,-4.4939837E-1,-4.9463376E-2,-2.7706027E-2],"categories":[],"categories_nodes":[],"categories_segments":[],"categories_sizes":[],"default_left":[0,0,0,0,0,0,0,0,0,0,0,0,0],"id":73,"left_children":[1,3,5,-1,7,-1,9,-1,-1,-1,11,-1,-1],"loss_changes":[4.14249E0,3.2593694E0,2.2473412E0,0E0,1.5178952E0,0E0,3.6668706E-1,0E0,0E0,0E0,3.250122E-3,0E0,0E0],"parents":[2147483647,0,0,1,1,2,2,4,4,6,6,10,10],"right_children":[2,4,6,-1,8,-1,10,-1,-1,-1,12,-1,-1],"split_conditions":[3.542201E-1,-6.1936414E-1,5.012541E0,-2.152983E-2,-7.49065E-9,2.4294924E-2,-5.5444037E-8,1.0308994E-1,2.4944035E-2,-1.149677E-2,4.5153424E-8,-4.9463376E-2,-2.7706027E-2],"split_indices":[9,11,10,0,5,0,3,0,0,0,3,0,0],"split_type":[0,0,0,0,0,0,0,0,0,0,0,0,0],"sum_hessian":[4.5260487E1,1.6292334E1,2.8968155E1,5.5090146E0,1.07833185E1,6.9294257E0,2.2038729E1,5.2517066E0,5.531612E0,5.042645E0,1.6996084E1,1.1981135E1,5.014949E0],"tree_param":{"num_deleted":"0","num_feature":"12","num_nodes":"13","size_leaf_vector":"1"}},{"base_weights":[6.081144E-2,8.901816E-2,-4.585169E-2],"categories":[],"categories_nodes":[],"categories_segments":[],"categories_sizes":[],"default_left":[0,0,0],"id":74,"left_children":[1,-1,-1],"loss_changes":[6.7558537E0,0E0,0E0],"parents":[2147483647,0,0],"right_children":[2,-1,-1],"split_conditions":[3.542201E-1,8.901816E-2,-4.585169E-2],"split_indices":[9,0,0],"split_type":[0,0,0],"sum_hessian":[1.3737552E1,5.0147953E0,8.722756E0],"tree_param":{"num_deleted":"0","num_feature":"12","num_nodes":"3","size_leaf_vector":"1"}},{"base_weights":[-2.7539557E-2,1.9242756E-2,-5.7372507E-2,-6.038968E-2,2.1021385E-1,2.2611053E-1,-1.5872347E-1,4.194025E-1,4.7849745E-2,-3.1372856E-2,4.127742E-2,-6.3996697E-3,-3.9083272E-2,1.8451099E-3,6.2884204E-2,3.8454976E-2,-1.6583746E-2],"categories":[],"categories_nodes":[],"categories_segments":[],"categories_sizes":[],"default_left":[0,0,0,0,0,0,0,0,0,0,0,0,0,0,0,0,0],"id":75,"left_children":[1,3,-1,5,7,9,11,13,15,-1,-1,-1,-1,-1,-1,-1,-1],"loss_changes":[3.1546838E0,1.7507771E0,0E0,2.3301218E0,1.1298571E0,2.2678902E0,1.320895E0,1.2199821E0,1.5164396E0,0E0,0E0,0E0,0E0,0E0,0E0,0E0,0E0],"parents":[2147483647,0,0,1,1,3,3,4,4,5,5,6,6,7,7,8,8],"right_children":[2,4,-1,6,8,10,12,14,16,-1,-1,-1,-1,-1,-1,-1,-1],"split_conditions":[2.927753E-5,5.2029873E1,-5.7372507E-2,-6.94017E-9,-3.0657955E-6,-2.0568597E-8,8.152433E-10,-2.5268462E-2,-7.4715875E-2,-3.1372856E-2,4.127742E-2,-6.3996697E-3,-3.9083272E-2,1.8451099E-3,6.2884204E-2,3.8454976E-2,-1.6583746E-2],"split_indices":[2,7,0,5,1,5,4,11,11,0,0,0,0,0,0,0,0],"split_type":[0,0,0,0,0,0,0,0,0,0,0,0,0,0,0,0,0],"sum_hessian":[1.2203013E2,1.1329119E2,8.738938E0,8.043474E1,3.2856453E1,2.0220865E1,6.0213875E1,1.366608E1,1.919037E1,5.0205393E0,1.5200326E1,4.3668083E1,1.6545792E1,5.0625057E0,8.603575E0,7.1401987E0,1.2050172E1],"tree_param":{"num_deleted":"0","num_feature":"12","num_nodes":"17","size_leaf_vector":"1"}},{"base_weights":[-1.4934813E-2,4.6884216E-2,-3.671403E-1,1.0385204E-1,-4.648976E-1,-4.638394E-1,-5.6445235E-3,-1.4281078E-1,1.6606571E-1,-2.5307829E-2,-5.8999177E-2,-1.8891202E-2,-5.769229E-2,2.313726E-2,-4.373199E-2,-2.2213304E-2,2.122081E-2],"categories":[],"categories_nodes":[],"categories_segments":[],"categories_sizes":[],"default_left":[0,0,0,0,0,0,0,0,0,0,0,0,0,0,0,0,0],"id":76,"left_children":[1,3,5,7,9,11,-1,13,15,-1,-1,-1,-1,-1,-1,-1,-1],"loss_changes":[3.044512E0,3.5225654E0,6.009412E-1,1.6817836E0,1.7179704E-1,3.816216E-1,0E0,2.5586958E0,1.6009803E0,0E0,0E0,0E0,0E0,0E0,0E0,0E0,0E0],"parents":[2147483647,0,0,1,1,2,2,3,3,4,4,5,5,7,7,8,8],"right_children":[2,4,6,8,10,12,-1,14,16,-1,-1,-1,-1,-1,-1,-1,-1],"split_conditions":[5.0764263E1,2.2817754E-5,5.8461487E1,-5.796649E-8,-5.8186066E-1,8.613857E-1,-5.6445235E-3,-4.3759314E-6,-5.758517E0,-2.5307829E-2,-5.8999177E-2,-1.8891202E-2,-5.769229E-2,2.313726E-2,-4.373199E-2,-2.2213304E-2,2.122081E-2],"split_indices":[10,0,6,3,11,9,0,0,10,0,0,0,0,0,0,0,0],"split_type":[0,0,0,0,0,0,0,0,0,0,0,0,0,0,0,0,0],"sum_hessian":[1.3803912E2,1.1816561E2,1.9873518E1,1.07047E2,1.1118614E1,1.4780426E1,5.0930915E0,2.1300386E1,8.5746605E1,5.2507424E0,5.8678718E0,5.0859857E0,9.694441E0,9.475648E0,1.18247385E1,8.704133E0,7.704247E1],"tree_param":{"num_deleted":"0","num_feature":"12","num_nodes":"17","size_leaf_vector":"1"}},{"base_weights":[2.2509692E-2,3.1565776E-1,-9.255847E-2,6.2351245E-1,-2.5341941E-2,1.3010165E-1,-2.2508313E-1,2.2810584E-2,8.307453E-2,3.9232206E-1,-2.4549318E-2,-1.1306244E-2,-4.220039E-1,2.5004165E-3,6.577325E-2,3.1540662E-2,-3.3386048E-2,-3.9443295E-3,-5.4906882E-2],"categories":[],"categories_nodes":[],"categories_segments":[],"categories_sizes":[],"default_left":[0,0,0,0,0,0,0,0,0,0,0,0,0,0,0,0,0,0,0],"id":77,"left_children":[1,3,5,7,-1,9,11,-1,-1,13,-1,15,17,-1,-1,-1,-1,-1,-1],"loss_changes":[2.8198814E0,4.283252E0,1.8051791E0,1.0862865E0,0E0,2.3703258E0,1.5988982E0,0E0,0E0,1.3466141E0,0E0,2.1384525E0,9.4089293E-1,0E0,0E0,0E0,0E0,0E0,0E0],"parents":[2147483647,0,0,1,1,2,2,3,3,5,5,6,6,9,9,11,11,12,12],"right_children":[2,4,6,8,-1,10,12,-1,-1,14,-1,16,18,-1,-1,-1,-1,-1,-1],"split_conditions":[2.9647306E-1,1.3786954E-5,-3.8624286E-9,-6.1936414E-1,-2.5341941E-2,2.6357381E0,9.3653296E-7,2.2810584E-2,8.307453E-2,-1.0999564E-8,-2.4549318E-2,5.0067963E1,5.7372946E-1,2.5004165E-3,6.577325E-2,3.1540662E-2,-3.3386048E-2,-3.9443295E-3,-5.4906882E-2],"split_indices":[9,1,5,11,0,8,0,0,0,5,0,7,9,0,0,0,0,0,0],"split_type":[0,0,0,0,0,0,0,0,0,0,0,0,0,0,0,0,0,0,0],"sum_hessian":[8.173045E1,2.2546833E1,5.9183617E1,1.4569493E1,7.9773397E0,2.2089098E1,3.709452E1,5.732477E0,8.837016E0,1.298154E1,9.107558E0,1.829304E1,1.880148E1,5.904352E0,7.0771875E0,9.098944E0,9.194096E0,5.0144987E0,1.3786982E1],"tree_param":{"num_deleted":"0","num_feature":"12","num_nodes":"19","size_leaf_vector":"1"}},{"base_weights":[1.1317086E-2,-3.2853913E-1,2.8154027E-1,3.5770778E-3,-4.3833505E-2,-2.5412023E-2,4.2378426E-1,1.8704832E-1,9.0624414E-2,8.000548E-2,-1.7004302E-2],"categories":[],"categories_nodes":[],"categories_segments":[],"categories_sizes":[],"default_left":[0,0,0,0,0,0,0,0,0,0,0],"id":78,"left_children":[1,3,5,-1,-1,-1,7,9,-1,-1,-1],"loss_changes":[4.5649076E0,8.969524E-1,2.215799E0,0E0,0E0,0E0,2.3702874E0,3.677243E0,0E0,0E0,0E0],"parents":[2147483647,0,0,1,1,2,2,6,6,7,7],"right_children":[2,4,6,-1,-1,-1,8,10,-1,-1,-1],"split_conditions":[5.9536487E-6,3.2278264E-1,-4.2845482E-1,3.5770778E-3,-4.3833505E-2,-2.5412023E-2,2.2003334E-5,-2.4149484E-8,9.0624414E-2,8.000548E-2,-1.7004302E-2],"split_indices":[2,9,11,0,0,0,1,3,0,0,0],"split_type":[0,0,0,0,0,0,0,0,0,0,0],"sum_hessian":[4.769942E1,2.1031973E1,2.6667448E1,5.0268297E0,1.6005142E1,5.4305706E0,2.1236877E1,1.5177299E1,6.059579E0,5.13012E0,1.0047178E1],"tree_param":{"num_deleted":"0","num_feature":"12","num_nodes":"11","size_leaf_vector":"1"}},{"base_weights":[-2.603869E-2,-4.6103977E-2,7.032099E-2],"categories":[],"categories_nodes":[],"categories_segments":[],"categories_sizes":[],"default_left":[0,0,0],"id":79,"left_children":[1,-1,-1],"loss_changes":[5.169322E0,0E0,0E0],"parents":[2147483647,0,0],"right_children":[2,-1,-1],"split_conditions":[1.7373262E-5,-4.6103977E-2,7.032099E-2],"split_indices":[2,0,0],"split_type":[0,0,0],"sum_hessian":[1.4273484E1,9.170823E0,5.102661E0],"tree_param":{"num_deleted":"0","num_feature":"12","num_nodes":"3","size_leaf_vector":"1"}},{"base_weights":[2.0552427E-2,-3.5388285E-1,3.5862714E-1,-2.3438479E-1,-4.6700266E-1,5.713223E-1,2.386354E-1,2.0838492E-2,-3.5874036E-1,-5.7625957E-2,-2.6983643E-1,2.4142763E-2,6.616653E-2,-1.4202431E-2,3.1216615E-1,-3.6539405E-3,-5.2760143E-2,-4.097986E-2,-6.7225667E-3,5.017993E-2,1.2200346E-2],"categories":[],"categories_nodes":[],"categories_segments":[],"categories_sizes":[],"default_left":[0,0,0,0,0,0,0,0,0,0,0,0,0,0,0,0,0,0,0,0,0],"id":80,"left_children":[1,3,5,7,9,11,13,-1,15,-1,17,-1,-1,-1,19,-1,-1,-1,-1,-1,-1],"loss_changes":[1.5374413E1,6.6990185E-1,1.491828E0,1.7290485E0,4.6082497E-1,5.0464106E-1,1.2340112E0,0E0,1.2769296E0,0E0,3.150655E-1,0E0,0E0,0E0,1.2346356E0,0E0,0E0,0E0,0E0,0E0,0E0],"parents":[2147483647,0,0,1,1,2,2,3,3,4,4,5,5,6,6,8,8,10,10,14,14],"right_children":[2,4,6,8,10,12,14,-1,16,-1,18,-1,-1,-1,20,-1,-1,-1,-1,-1,-1],"split_conditions":[3.32646E1,2.6353541E-6,-6.56248E-2,-8.329304E-9,8.910843E0,-8.623561E-6,-2.2614672E0,2.0838492E-2,-5.8584076E-1,-5.7625957E-2,5.1189957E1,2.4142763E-2,6.616653E-2,-1.4202431E-2,5.0266212E1,-3.6539405E-3,-5.2760143E-2,-4.097986E-2,-6.7225667E-3,5.017993E-2,1.2200346E-2],"split_indices":[10,0,11,5,10,0,8,0,8,0,6,0,0,0,7,0,0,0,0,0,0],"split_type":[0,0,0,0,0,0,0,0,0,0,0,0,0,0,0,0,0,0,0,0,0],"sum_hessian":[1.1945067E2,5.6655266E1,6.2795406E1,2.9044785E1,2.761048E1,2.1292086E1,4.150332E1,6.2205863E0,2.28242E1,1.652865E1,1.1081828E1,5.366869E0,1.5925218E1,6.568338E0,3.4934982E1,8.266815E0,1.4557384E1,5.949419E0,5.1324086E0,1.6671309E1,1.8263672E1],"tree_param":{"num_deleted":"0","num_feature":"12","num_nodes":"21","size_leaf_vector":"1"}},{"base_weights":[-1.5798327E-2,-2.4543984E-1,6.5876745E-2,-1.03225015E-1,-6.2309988E-2,1.4294389E-1,-3.1636658E-1,1.0002037E-1,-4.193978E-2,-1.6180177E-1,2.3555246E-1,-4.5276475E-3,-4.8482366E-2,5.2108075E-2,-1.5712101E-2,2.025717E-3,-4.9575105E-2,3.0979438E-2,-1.2108851E-2],"categories":[],"categories_nodes":[],"categories_segments":[],"categories_sizes":[],"default_left":[0,0,0,0,0,0,0,0,0,0,0,0,0,0,0,0,0,0,0],"id":81,"left_children":[1,3,5,7,-1,9,11,13,-1,15,17,-1,-1,-1,-1,-1,-1,-1,-1],"loss_changes":[2.574171E0,1.868784E0,3.0320382E0,1.799151E0,0E0,2.4388928E0,7.691611E-1,1.9714847E0,0E0,1.2514794E0,1.775737E0,0E0,0E0,0E0,0E0,0E0,0E0,0E0,0E0],"parents":[2147483647,0,0,1,1,2,2,3,3,5,5,6,6,7,7,9,9,10,10],"right_children":[2,4,6,8,-1,10,12,14,-1,16,18,-1,-1,-1,-1,-1,-1,-1,-1],"split_conditions":[-4.8076885E-8,1.2177477E-5,5.0764263E1,3.9761317E0,-6.2309988E-2,-8.329304E-9,7.702356E-10,-9.157461E-8,-4.193978E-2,-1.3928521E-8,7.8877E-8,-4.5276475E-3,-4.8482366E-2,5.2108075E-2,-1.5712101E-2,2.025717E-3,-4.9575105E-2,3.0979438E-2,-1.2108851E-2],"split_indices":[3,2,10,8,0,5,3,3,0,5,3,0,0,0,0,0,0,0,0],"split_type":[0,0,0,0,0,0,0,0,0,0,0,0,0,0,0,0,0,0,0],"sum_hessian":[1.3538322E2,3.499226E1,1.00390976E2,2.6344921E1,8.647337E0,8.406749E1,1.632348E1,1.6452446E1,9.892475E0,1.941889E1,6.4648605E1,6.742255E0,9.581225E0,5.8487983E0,1.0603648E1,1.3175404E1,6.2434864E0,5.361825E1,1.1030349E1],"tree_param":{"num_deleted":"0","num_feature":"12","num_nodes":"19","size_leaf_vector":"1"}},{"base_weights":[-1.0907592E-2,1.9575745E-1,-4.5030102E-1,4.0205333E-1,-1.3342767E-2,-5.2017417E-2,-1.9833107E-2,6.082936E-1,-1.0733793E-2,2.8311884E-1,-2.075412E-1,2.4658395E-2,7.9320215E-2,5.2980855E-3,4.6285868E-2,2.2873394E-2,-4.22024E-2],"categories":[],"categories_nodes":[],"categories_segments":[],"categories_sizes":[],"default_left":[0,0,0,0,0,0,0,0,0,0,0,0,0,0,0,0,0],"id":82,"left_children":[1,3,5,7,9,-1,-1,11,-1,13,15,-1,-1,-1,-1,-1,-1],"loss_changes":[7.34389E0,2.3795948E0,3.5217142E-1,2.9793491E0,1.6881751E0,0E0,0E0,1.1349831E0,0E0,4.5633084E-1,1.7506666E0,0E0,0E0,0E0,0E0,0E0,0E0],"parents":[2147483647,0,0,1,1,2,2,3,3,4,4,7,7,9,9,10,10],"right_children":[2,4,6,8,10,-1,-1,12,-1,14,16,-1,-1,-1,-1,-1,-1],"split_conditions":[2.2994326E1,-1.7089219E-9,7.83216E-6,2.6357381E0,-8.098665E-2,-5.2017417E-2,-1.9833107E-2,-1.4395103E-8,-1.0733793E-2,-1.5188428E-8,-5.692359E-6,2.4658395E-2,7.9320215E-2,5.2980855E-3,4.6285868E-2,2.2873394E-2,-4.22024E-2],"split_indices":[10,5,0,8,11,0,0,5,0,3,0,0,0,0,0,0,0],"split_type":[0,0,0,0,0,0,0,0,0,0,0,0,0,0,0,0,0],"sum_hessian":[7.890265E1,5.4039913E1,2.4862741E1,2.6737864E1,2.7302048E1,1.8631624E1,6.2311177E0,1.8893986E1,7.8438783E0,1.0624657E1,1.6677391E1,7.180793E0,1.1713192E1,5.226911E0,5.397746E0,5.4747887E0,1.1202602E1],"tree_param":{"num_deleted":"0","num_feature":"12","num_nodes":"17","size_leaf_vector":"1"}},{"base_weights":[4.325443E-2,7.029713E-2,-1.0106497E-1,-4.0009007E-1,1.6791752E-1,-4.920939E-2,-1.1098371E-2,-3.3469368E-2,3.8237578E-1,4.827977E-4,6.7388736E-2],"categories":[],"categories_nodes":[],"categories_segments":[],"categories_sizes":[],"default_left":[0,0,0,0,0,0,0,0,0,0,0],"id":83,"left_children":[1,-1,3,5,7,-1,-1,-1,9,-1,-1],"loss_changes":[4.719973E0,0E0,3.3599386E0,4.689064E-1,2.5269413E0,0E0,0E0,0E0,1.7650254E0,0E0,0E0],"parents":[2147483647,0,0,2,2,3,3,4,4,8,8],"right_children":[2,-1,4,6,8,-1,-1,-1,10,-1,-1],"split_conditions":[7.618841E-2,7.029713E-2,5.9536487E-6,5.457034E1,1.7705659E-6,-4.920939E-2,-1.1098371E-2,-3.3469368E-2,3.182056E-1,4.827977E-4,6.7388736E-2],"split_indices":[9,0,2,6,0,0,0,0,9,0,0],"split_type":[0,0,0,0,0,0,0,0,0,0,0],"sum_hessian":[4.782817E1,7.8900437E0,3.9938126E1,1.8682056E1,2.1256071E1,1.3639399E1,5.0426574E0,6.189505E0,1.5066566E1,7.007477E0,8.05909E0],"tree_param":{"num_deleted":"0","num_feature":"12","num_nodes":"11","size_leaf_vector":"1"}},{"base_weights":[-2.4390275E-2,-4.6035644E-2,7.0837125E-2],"categories":[],"categories_nodes":[],"categories_segments":[],"categories_sizes":[],"default_left":[0,0,0],"id":84,"left_children":[1,-1,-1],"loss_changes":[5.181949E0,0E0,0E0],"parents":[2147483647,0,0],"right_children":[2,-1,-1],"split_conditions":[1.521546E-5,-4.6035644E-2,7.0837125E-2],"split_indices":[2,0,0],"split_type":[0,0,0],"sum_hessian":[1.4200205E1,9.136233E0,5.0639715E0],"tree_param":{"num_deleted":"0","num_feature":"12","num_nodes":"3","size_leaf_vector":"1"}},{"base_weights":[-2.972464E-2,-3.8408354E-1,3.0364907E-1,-1.7369331E-1,-5.5218596E-2,4.7329938E-1,1.827068E-1,-5.2170236E-2,-4.8997212E-2,5.767574E-1,9.024527E-3,-1.4114282E-1,3.3801416E-1,1.7209135E-2,-3.0559907E-2,7.369784E-2,2.8106673E-2,1.5923237E-2,-4.9550112E-2,4.981819E-3,6.2766224E-2],"categories":[],"categories_nodes":[],"categories_segments":[],"categories_sizes":[],"default_left":[0,0,0,0,0,0,0,0,0,0,0,0,0,0,0,0,0,0,0,0,0],"id":85,"left_children":[1,3,5,7,-1,9,11,-1,13,15,-1,17,19,